{"learner":{"attributes":{"scikit_learn":"{\"_estimator_type\": \"classifier\"}"},"feature_names":[],"feature_types":[],"gradient_booster":{"model":{"gbtree_model_param":{"num_parallel_tree":"1","num_trees":"100"},"iteration_indptr":[0,1,2,3,4,5,6,7,8,9,10,11,12,13,14,15,16,17,18,19,20,21,22,23,24,25,26,27,28,29,30,31,32,33,34,35,36,37,38,39,40,41,42,43,44,45,46,47,48,49,50,51,52,53,54,55,56,57,58,59,60,61,62,63,64,65,66,67,68,69,70,71,72,73,74,75,76,77,78,79,80,81,82,83,84,85,86,87,88,89,90,91,92,93,94,95,96,97,98,99,100],"tree_info":[0,0,0,0,0,0,0,0,0,0,0,0,0,0,0,0,0,0,0,0,0,0,0,0,0,0,0,0,0,0,0,0,0,0,0,0,0,0,0,0,0,0,0,0,0,0,0,0,0,0,0,0,0,0,0,0,0,0,0,0,0,0,0,0,0,0,0,0,0,0,0,0,0,0,0,0,0,0,0,0,0,0,0,0,0,0,0,0,0,0,0,0,0,0,0,0,0,0,0,0],"trees":[{"base_weights":[-0E0,1.8685279E0,-1.5498289E0,-1.8135593E0,1.9111103E0,-1.8476692E0,-8.609946E-1,-1.963071E0,-7.8431374E-1,1.9944433E0,1.1585366E0,-1.874234E0,-4.5387453E-1,2.4903392E-2,-1.4596839E0,-0E0,-1.9668939E0,-5.85965E-1,6.76259E-1,1.9957712E0,-5.63077E-1,3.539004E-1,1.8064631E0,-1.9887855E0,-1.7264162E0,6.430868E-1,-1.9251798E0,1.2634672E0,-6.051517E-1,-2.9302716E-1,-1.7272153E0,-5.963359E-1,-1.4408603E0,-5.3513515E-1,1.509434E0,-1.1578947E0,1.9963808E0,9.2018646E-1,-1.6501749E0,1.874921E0,-5.881773E-1,-1.65774E0,-1.9940691E0,-1.8727211E0,-1.0368325E0,-1.5735607E0,1.3832977E0,-1.9877394E0,-9.2134833E-1,-5.920792E-1,1.4671108E0,2.8146598E-1,-1.4094062E0,-1.764526E0,3.7676117E-1,-5.997795E-1,-1.8516532E0,-5.661972E-1,-0E0,-4.0000004E-1,5.387755E-1,3.6E-1,-5.2500004E-1,5.9896654E-1,-4.0000004E-1,-3.3878157E-1,4.2011505E-1,-5.760389E-1,5.052632E-1,-5.781818E-1,5.737202E-1,-3.3712375E-1,-5.9743863E-1,-5.986945E-1,-5.282512E-1,-2.0283072E-1,-5.728537E-1,2.427481E-1,-4.590569E-1,-2.0689655E-2,-5.689119E-1,5.048951E-1,-5.796611E-1,-2.3076925E-1,-5.9814817E-1,-5.6363636E-1,4.666667E-1,4.6544096E-1,-4.8793775E-1,2.3578867E-1,-5.7904226E-1,3.5841316E-2,-5.4328215E-1,-5.793848E-1,5.589744E-1,-5.675676E-1,2.3716341E-1,2.2070648E-1,-5.101508E-1,-3.4171206E-1,-5.694526E-1],"categories":[],"categories_nodes":[],"categories_segments":[],"categories_sizes":[],"default_left":[0,0,0,0,0,0,0,0,0,0,0,0,0,0,0,0,0,0,0,0,0,0,0,0,0,0,0,0,0,0,0,0,0,0,0,0,0,0,0,0,0,0,0,0,0,0,0,0,0,0,0,0,0,0,0,0,0,0,0,0,0,0,0,0,0,0,0,0,0,0,0,0,0,0,0,0,0,0,0,0,0,0,0,0,0,0,0,0,0,0,0,0,0,0,0,0,0,0,0,0,0],"id":0,"left_children":[1,3,5,7,9,11,13,15,17,19,21,23,25,27,29,-1,31,-1,33,35,-1,37,39,41,43,45,47,49,51,53,55,-1,57,-1,59,61,63,65,67,69,-1,71,73,75,77,79,81,83,85,-1,87,89,91,93,95,97,99,-1,-1,-1,-1,-1,-1,-1,-1,-1,-1,-1,-1,-1,-1,-1,-1,-1,-1,-1,-1,-1,-1,-1,-1,-1,-1,-1,-1,-1,-1,-1,-1,-1,-1,-1,-1,-1,-1,-1,-1,-1,-1,-1,-1],"loss_changes":[3.293433E5,8.0880312E3,1.2752391E4,8.9252075E1,3.1944219E3,1.6060312E3,9.953767E3,3.861084E0,1.3192683E2,2.3967188E2,2.649879E3,7.176719E2,1.3133916E3,5.9075303E3,3.4948965E3,0E0,2.7792969E0,0E0,7.391771E1,9.0515625E1,0E0,2.576561E3,7.298789E2,3.8648438E1,1.8747266E3,7.6760364E2,1.9991455E1,1.685522E3,3.5783848E3,2.0607998E3,1.2769473E3,0E0,1.4956535E1,0E0,2.3976387E1,1.5363158E1,2.9265625E1,1.7432698E3,4.5352527E2,3.978916E2,0E0,6.597034E1,5.1796875E0,6.742422E2,2.9684087E3,5.681775E1,3.512636E2,8.8635254E-1,5.5688118E1,0E0,6.29375E2,2.6653638E3,1.6155317E3,3.99239E2,1.3506873E3,1.334523E3,2.698086E2,0E0,0E0,0E0,0E0,0E0,0E0,0E0,0E0,0E0,0E0,0E0,0E0,0E0,0E0,0E0,0E0,0E0,0E0,0E0,0E0,0E0,0E0,0E0,0E0,0E0,0E0,0E0,0E0,0E0,0E0,0E0,0E0,0E0,0E0,0E0,0E0,0E0,0E0,0E0,0E0,0E0,0E0,0E0,0E0],"parents":[2147483647,0,0,1,1,2,2,3,3,4,4,5,5,6,6,7,7,8,8,9,9,10,10,11,11,12,12,13,13,14,14,16,16,18,18,19,19,21,21,22,22,23,23,24,24,25,25,26,26,27,27,28,28,29,29,30,30,32,32,34,34,35,35,36,36,37,37,38,38,39,39,41,41,42,42,43,43,44,44,45,45,46,46,47,47,48,48,50,50,51,51,52,52,53,53,54,54,55,55,56,56],"right_children":[2,4,6,8,10,12,14,16,18,20,22,24,26,28,30,-1,32,-1,34,36,-1,38,40,42,44,46,48,50,52,54,56,-1,58,-1,60,62,64,66,68,70,-1,72,74,76,78,80,82,84,86,-1,88,90,92,94,96,98,100,-1,-1,-1,-1,-1,-1,-1,-1,-1,-1,-1,-1,-1,-1,-1,-1,-1,-1,-1,-1,-1,-1,-1,-1,-1,-1,-1,-1,-1,-1,-1,-1,-1,-1,-1,-1,-1,-1,-1,-1,-1,-1,-1,-1],"split_conditions":[-1.784969E0,-4.7351637E-1,7.537479E-1,9.382958E-1,-1.4569772E0,2.1752741E0,-2.1983798E-1,-3.3875022E0,1.0582327E0,6.527206E-1,1.8133627E0,-2.4768679E-1,-2.2991033E-1,-4.976743E-1,1.0919234E0,-0E0,9.1888654E-1,-5.85965E-1,2.7068524E-2,-4.518806E-1,-5.63077E-1,-1.1761409E-1,6.527206E-1,-1.5262341E0,6.962589E-1,9.558488E-2,9.081646E-1,-1.00554E0,-1.1712327E-1,5.081611E-2,-4.988435E-1,-5.963359E-1,-1.8638781E0,-5.3513515E-1,-1.5615852E-1,-1.3250139E0,2.1752741E0,-1.7820312E-1,2.356403E0,-9.204272E-1,-5.881773E-1,-5.0865746E-1,1.922718E0,-6.8502706E-1,-8.953553E-1,-1.3089101E0,8.817399E-1,-2.2292273E-1,1.860091E-1,-5.920792E-1,1.6490867E0,4.6258676E-1,-1.5299597E0,5.927411E0,3.896954E-1,-3.2678166E-1,1.7029283E0,-5.661972E-1,-0E0,-4.0000004E-1,5.387755E-1,3.6E-1,-5.2500004E-1,5.9896654E-1,-4.0000004E-1,-3.3878157E-1,4.2011505E-1,-5.760389E-1,5.052632E-1,-5.781818E-1,5.737202E-1,-3.3712375E-1,-5.9743863E-1,-5.986945E-1,-5.282512E-1,-2.0283072E-1,-5.728537E-1,2.427481E-1,-4.590569E-1,-2.0689655E-2,-5.689119E-1,5.048951E-1,-5.796611E-1,-2.3076925E-1,-5.9814817E-1,-5.6363636E-1,4.666667E-1,4.6544096E-1,-4.8793775E-1,2.3578867E-1,-5.7904226E-1,3.5841316E-2,-5.4328215E-1,-5.793848E-1,5.589744E-1,-5.675676E-1,2.3716341E-1,2.2070648E-1,-5.101508E-1,-3.4171206E-1,-5.694526E-1],"split_indices":[13,3,3,29,11,6,11,9,10,9,3,3,25,13,28,0,29,0,7,10,0,25,9,13,6,14,16,10,7,15,7,0,13,0,8,14,6,8,20,21,0,2,6,19,18,10,5,25,4,0,2,12,18,3,1,13,28,0,0,0,0,0,0,0,0,0,0,0,0,0,0,0,0,0,0,0,0,0,0,0,0,0,0,0,0,0,0,0,0,0,0,0,0,0,0,0,0,0,0,0,0],"split_type":[0,0,0,0,0,0,0,0,0,0,0,0,0,0,0,0,0,0,0,0,0,0,0,0,0,0,0,0,0,0,0,0,0,0,0,0,0,0,0,0,0,0,0,0,0,0,0,0,0,0,0,0,0,0,0,0,0,0,0,0,0,0,0,0,0,0,0,0,0,0,0,0,0,0,0,0,0,0,0,0,0,0,0,0,0,0,0,0,0,0,0,0,0,0,0,0,0,0,0,0,0],"sum_hessian":[1.137255E5,5.156125E4,6.216425E4,5.89E2,5.097225E4,4.3398E4,1.876625E4,5.135E2,7.55E1,4.588925E4,5.083E3,4.2586E4,8.12E2,7.56825E3,1.1198E4,1E0,5.125E2,4.175E1,3.375E1,4.5874E4,1.525E1,2.268E3,2.815E3,2.398575E4,1.860025E4,4.655E2,3.465E2,2.5515E3,5.01675E3,2.08925E3,9.10875E3,4.9025E2,2.225E1,8.25E0,2.55E1,8.5E0,4.58655E4,1.76875E3,4.9925E2,2.76525E3,4.975E1,3.8175E2,2.3604E4,1.534325E4,3.257E3,1.1625E2,3.4925E2,3.2525E2,2.125E1,1.505E2,2.401E3,2.3865E3,2.63025E3,6.53E2,1.43625E3,9.06E2,8.20275E3,1.675E1,5.5E0,2E0,2.35E1,1.5E0,7E0,4.58635E4,2E0,3.355E2,1.43325E3,4.6225E2,3.7E1,2.65E1,2.73875E3,1.485E2,2.3325E2,2.343775E4,1.6625E2,4.5825E2,1.4885E4,6.8675E2,2.57025E3,2.075E1,9.55E1,3.2075E2,2.85E1,2.25E0,3.23E2,1.55E1,5.75E0,2.33775E3,6.325E1,1.94375E3,4.4275E2,5.4725E2,2.083E3,6.2475E2,2.825E1,2.21E2,1.21525E3,4.095E2,4.965E2,5.0425E2,7.6985E3],"tree_param":{"num_deleted":"0","num_feature":"30","num_nodes":"101","size_leaf_vector":"1"}},{"base_weights":[4.323613E-5,1.4430856E0,-1.1827046E0,-1.4028181E0,1.4760364E0,-1.3226417E0,-2.7240843E-1,-1.5182687E0,-6.136621E-1,1.5435592E0,8.2332253E-1,-7.731016E-1,-1.4083816E0,5.0849336E-1,-8.4102416E-1,-1.540984E0,-1.076223E0,-4.5510706E-1,4.9991256E-1,1.5445268E0,-4.619789E-1,1.1955776E-1,1.3789765E0,-1.2105749E0,1.9213866E-1,-1.4445885E0,1.3051727E-1,9.31372E-1,-5.294736E-1,1.4442621E-1,-1.4092914E0,-4.6496856E-1,-9.796555E-1,1.18243456E-1,-4.4369775E-1,-4.502916E-1,1.1830071E0,-4.3021035E-1,1.5449055E0,-1.7281203E0,5.894172E-1,1.4367589E0,-4.5724803E-1,-1.4720968E0,-8.1743836E-1,9.156122E-1,-1.3881726E0,-5.675996E-1,-1.4689052E0,9.427772E-1,-1.4571377E0,1.0397769E0,-2.0170288E0,-1.5433983E0,2.537932E-1,1.0994726E0,-6.867781E-1,-7.988872E-1,-1.5838004E0,-4.2072964E-1,9.939106E-2,3.2025886E-1,-3.4112665E-1,-3.0877936E-1,4.1614804E-1,4.635334E-1,-3.9361474E-1,4.1579387E-1,-5.3905314E-1,3.3269185E-1,-2.273622E-1,-6.9598204E-1,4.3511307E-1,-3.2040936E-1,-4.5149887E-1,1.2257271E-2,-3.52161E-1,-3.1591678E-1,3.8843593E-1,2.85112E-1,-4.6807277E-1,9.952035E-2,-4.7879043E-1,-4.5049646E-1,-3.5582012E-1,3.8447094E-1,-4.5405653E-1,3.2907298E-1,-4.5804524E-1,3.425944E-1,-4.7277087E-1,-6.742533E-1,-4.6916988E-1,-4.8292357E-1,3.038601E-1,-4.0583193E-1,4.1618687E-1,-4.355435E-1,4.1524982E-1,-4.7317517E-1,-4.9175892E-2,5.407377E-3,-4.630339E-1,-5.199114E-1,-4.6969298E-1],"categories":[],"categories_nodes":[],"categories_segments":[],"categories_sizes":[],"default_left":[0,0,0,0,0,0,0,0,0,0,0,0,0,0,0,0,0,0,0,0,0,0,0,0,0,0,0,0,0,0,0,0,0,0,0,0,0,0,0,0,0,0,0,0,0,0,0,0,0,0,0,0,0,0,0,0,0,0,0,0,0,0,0,0,0,0,0,0,0,0,0,0,0,0,0,0,0,0,0,0,0,0,0,0,0,0,0,0,0,0,0,0,0,0,0,0,0,0,0,0,0,0,0,0,0],"id":1,"left_children":[1,3,5,7,9,11,13,15,17,19,21,23,25,27,29,31,33,-1,35,37,-1,39,41,43,45,47,49,51,53,55,57,-1,59,61,-1,-1,63,-1,65,67,69,71,-1,73,75,77,79,81,83,85,87,89,91,93,95,97,99,101,103,-1,-1,-1,-1,-1,-1,-1,-1,-1,-1,-1,-1,-1,-1,-1,-1,-1,-1,-1,-1,-1,-1,-1,-1,-1,-1,-1,-1,-1,-1,-1,-1,-1,-1,-1,-1,-1,-1,-1,-1,-1,-1,-1,-1,-1,-1],"loss_changes":[1.7924005E5,4.4379766E3,7.3515156E3,4.844409E1,2.0597188E3,2.3559219E3,3.415631E3,3.0819092E0,7.2024796E1,1.288125E2,1.7150554E3,2.852068E3,2.411211E3,1.4232295E3,2.4927512E3,7.1606445E-1,1.2870806E1,0E0,4.617236E1,5.0007812E1,0E0,1.6819977E3,4.1333154E2,4.766211E2,2.4104175E3,9.007344E2,1.2852811E3,7.3831824E2,7.4606226E2,1.2937915E3,2.99458E2,0E0,5.8400345E0,1.0247395E1,0E0,0E0,1.2616993E1,0E0,2.6921875E1,8.6557495E1,1.0819525E3,1.26331055E2,0E0,3.5476562E1,5.6870337E2,1.0807848E3,2.6791736E2,1.0569155E3,3.7926562E2,5.5054236E2,6.1712402E1,5.959199E2,5.0519104E0,7.105646E1,9.680725E2,5.5281775E2,4.05504E2,3.830264E2,3.2333984E0,0E0,0E0,0E0,0E0,0E0,0E0,0E0,0E0,0E0,0E0,0E0,0E0,0E0,0E0,0E0,0E0,0E0,0E0,0E0,0E0,0E0,0E0,0E0,0E0,0E0,0E0,0E0,0E0,0E0,0E0,0E0,0E0,0E0,0E0,0E0,0E0,0E0,0E0,0E0,0E0,0E0,0E0,0E0,0E0,0E0,0E0],"parents":[2147483647,0,0,1,1,2,2,3,3,4,4,5,5,6,6,7,7,8,8,9,9,10,10,11,11,12,12,13,13,14,14,15,15,16,16,18,18,19,19,21,21,22,22,23,23,24,24,25,25,26,26,27,27,28,28,29,29,30,30,32,32,33,33,36,36,38,38,39,39,40,40,41,41,43,43,44,44,45,45,46,46,47,47,48,48,49,49,50,50,51,51,52,52,53,53,54,54,55,55,56,56,57,57,58,58],"right_children":[2,4,6,8,10,12,14,16,18,20,22,24,26,28,30,32,34,-1,36,38,-1,40,42,44,46,48,50,52,54,56,58,-1,60,62,-1,-1,64,-1,66,68,70,72,-1,74,76,78,80,82,84,86,88,90,92,94,96,98,100,102,104,-1,-1,-1,-1,-1,-1,-1,-1,-1,-1,-1,-1,-1,-1,-1,-1,-1,-1,-1,-1,-1,-1,-1,-1,-1,-1,-1,-1,-1,-1,-1,-1,-1,-1,-1,-1,-1,-1,-1,-1,-1,-1,-1,-1,-1,-1],"split_conditions":[-1.784969E0,-4.7351637E-1,1.5489025E0,9.382958E-1,-1.6847309E0,-8.053831E-1,-1.1712327E-1,-5.230488E-1,1.0582327E0,3.274421E-1,2.068351E0,6.392292E-1,2.1752741E0,1.5343763E-1,2.1210632E0,9.295936E-1,-1.334091E0,-4.5510706E-1,7.980408E-2,-7.6666003E-1,-4.619789E-1,1.1321341E0,6.527206E-1,-2.772468E-1,-2.8341877E-1,-8.1890994E-1,-2.6500311E-1,1.2184641E0,4.0495504E-2,-9.5995E-2,-2.4818395E-1,-4.6496856E-1,1.1465461E0,-6.30683E-2,-4.4369775E-1,-4.502916E-1,-1.5615852E-1,-4.3021035E-1,1.3035527E-1,-4.513662E0,-1.1304314E-1,-1.3328068E0,-4.5724803E-1,-1.4710224E0,-8.9829683E-1,1.5554014E-1,-1.6599141E0,9.549404E-2,9.5766616E-1,-5.119637E-3,-1.5254632E0,1.0401527E0,-2.1983798E-1,5.512596E0,2.4200588E-1,1.1601318E-1,1.0577215E-1,-4.5151684E-1,-1.5631012E0,-4.2072964E-1,9.939106E-2,3.2025886E-1,-3.4112665E-1,-3.0877936E-1,4.1614804E-1,4.635334E-1,-3.9361474E-1,4.1579387E-1,-5.3905314E-1,3.3269185E-1,-2.273622E-1,-6.9598204E-1,4.3511307E-1,-3.2040936E-1,-4.5149887E-1,1.2257271E-2,-3.52161E-1,-3.1591678E-1,3.8843593E-1,2.85112E-1,-4.6807277E-1,9.952035E-2,-4.7879043E-1,-4.5049646E-1,-3.5582012E-1,3.8447094E-1,-4.5405653E-1,3.2907298E-1,-4.5804524E-1,3.425944E-1,-4.7277087E-1,-6.742533E-1,-4.6916988E-1,-4.8292357E-1,3.038601E-1,-4.0583193E-1,4.1618687E-1,-4.355435E-1,4.1524982E-1,-4.7317517E-1,-4.9175892E-2,5.407377E-3,-4.630339E-1,-5.199114E-1,-4.6969298E-1],"split_indices":[13,3,3,29,9,13,7,3,10,11,3,3,6,12,28,29,2,0,22,10,0,28,9,3,12,19,25,0,27,5,19,0,16,4,0,0,8,0,2,6,21,23,0,9,9,14,11,11,6,12,16,13,11,20,0,4,0,11,18,0,0,0,0,0,0,0,0,0,0,0,0,0,0,0,0,0,0,0,0,0,0,0,0,0,0,0,0,0,0,0,0,0,0,0,0,0,0,0,0,0,0,0,0,0,0],"split_type":[0,0,0,0,0,0,0,0,0,0,0,0,0,0,0,0,0,0,0,0,0,0,0,0,0,0,0,0,0,0,0,0,0,0,0,0,0,0,0,0,0,0,0,0,0,0,0,0,0,0,0,0,0,0,0,0,0,0,0,0,0,0,0,0,0,0,0,0,0,0,0,0,0,0,0,0,0,0,0,0,0,0,0,0,0,0,0,0,0,0,0,0,0,0,0,0,0,0,0,0,0,0,0,0,0],"sum_hessian":[1.0501602E5,4.7302793E4,5.771323E4,5.4094403E2,4.676185E4,5.0022902E4,7.6903276E3,4.7109985E2,6.9844154E1,4.2376652E4,4.385197E3,6.752635E3,4.3270266E4,3.2403442E3,4.4499834E3,4.457102E2,2.5389656E1,3.8361767E1,3.1482384E1,4.236386E4,1.2795348E1,1.9352793E3,2.4499175E3,4.6464727E3,2.1061624E3,4.227567E4,9.9459454E2,2.3024177E3,9.3792645E2,1.6278401E3,2.8221433E3,4.3701157E2,8.698642E0,6.580558E0,1.8809097E1,7.7077975E0,2.3774588E1,4.905267E0,4.2358953E4,3.9181717E2,1.5434622E3,2.4026025E3,4.7314934E1,2.7886584E3,1.857814E3,1.445038E3,6.6112427E2,1.1412283E3,4.1134445E4,6.582391E2,3.3635544E2,2.2213904E3,8.102732E1,4.0835187E2,5.295745E2,7.5734015E2,8.7049994E2,6.286844E2,2.193459E3,6.524691E0,2.1739507E0,3.832223E0,2.7483346E0,1.6671492E0,2.2107437E1,4.2356363E4,2.5917675E0,8.046221E0,3.8377097E2,1.1140343E3,4.2942786E2,8.066291E0,2.3945361E3,2.1247935E2,2.5761792E3,5.4538904E2,1.3124249E3,2.3308516E2,1.2119529E3,4.5001434E1,6.161228E2,6.0917065E2,5.320576E2,3.6861918E4,4.272525E3,5.788743E2,7.936475E1,8.541253E0,3.2781418E2,2.1383987E3,8.299183E1,5.1083817E1,2.9943504E1,3.983823E2,9.969576E0,2.189919E2,3.1058264E2,7.561505E1,6.817251E2,3.2129343E2,5.4920654E2,3.0024203E2,3.2844235E2,2.2767859E2,1.9657804E3],"tree_param":{"num_deleted":"0","num_feature":"30","num_nodes":"105","size_leaf_vector":"1"}},{"base_weights":[1.0513307E-3,1.2431494E0,-9.8679763E-1,-6.462727E-1,1.2803943E0,-1.20732E0,-5.079102E-1,3.820515E-1,-1.1412361E0,1.2914064E0,-1.8249043E0,-1.2499735E0,-6.3951623E-1,3.0362321E-2,-9.0275156E-1,1.1600084E0,-1.5152647E0,-1.3252014E0,-7.118053E-2,1.304106E0,-6.912679E-1,-2.0738146E0,-4.2064625E-1,-1.0178766E0,-1.3272985E0,2.872047E-1,-1.2804375E0,4.921448E-1,-6.881371E-1,-1.6384028E-1,-1.1341846E0,1.3807932E0,-4.2093733E-1,-3.95326E-1,-5.0403804E-1,-1.4002085E0,-8.6653477E-1,-4.109656E-1,7.4001914E-1,1.342309E0,9.458217E-1,-1.4153957E0,1.3198928E0,-2.1416733E0,-3.6262596E-1,-1.3069123E0,-6.2777406E-1,-8.280102E-1,-1.3427306E0,-1.1883143E0,8.125905E-1,-1.3187602E0,-2.2428605E-1,7.757026E-1,-1.1979603E0,5.806938E-1,-9.750902E-1,-1.221149E0,2.899913E-1,-2.9419422E-1,-1.2408257E0,4.411192E-1,-4.3562287E-1,-4.0301967E-1,-4.9084404E-1,-3.9126855E-1,4.532403E-2,-4.013775E-1,3.687827E-1,-4.3357083E-1,4.0276787E-1,3.2096606E-1,-2.9710805E-1,3.1317347E-1,-4.3649927E-1,4.6470973E-1,-3.6857688E-1,-5.3533864E-1,-7.0028126E-1,-2.9497424E-1,-3.9898875E-1,2.3411973E-1,-2.8297752E-1,-3.9481497E-1,5.3448987E-1,-4.049289E-1,-3.4007773E-1,1.7853667E-1,-4.024228E-1,3.6603612E-1,-4.584801E-1,-4.1698965E-1,-2.704034E-1,-4.0628508E-1,5.2615684E-1,2.768263E-1,-3.4732422E-1,-4.2825022E-1,-5.346867E-2,3.2995525E-1,-3.542311E-1,1.754901E-1,-3.7221584E-1,-3.92706E-1,3.6620513E-1,1.9519502E-1,-4.0736288E-1,4.588434E-1,-2.6357028E-1,-1.3911484E-1,-3.8327736E-1],"categories":[],"categories_nodes":[],"categories_segments":[],"categories_sizes":[],"default_left":[0,0,0,0,0,0,0,0,0,0,0,0,0,0,0,0,0,0,0,0,0,0,0,0,0,0,0,0,0,0,0,0,0,0,0,0,0,0,0,0,0,0,0,0,0,0,0,0,0,0,0,0,0,0,0,0,0,0,0,0,0,0,0,0,0,0,0,0,0,0,0,0,0,0,0,0,0,0,0,0,0,0,0,0,0,0,0,0,0,0,0,0,0,0,0,0,0,0,0,0,0,0,0,0,0,0,0,0,0,0,0],"id":2,"left_children":[1,3,5,7,9,11,13,15,17,19,21,23,25,27,29,31,33,35,37,39,41,43,-1,45,47,49,51,53,55,57,59,61,-1,-1,-1,63,65,-1,67,69,71,73,75,77,-1,79,81,83,85,87,89,91,93,95,97,99,101,103,105,107,109,-1,-1,-1,-1,-1,-1,-1,-1,-1,-1,-1,-1,-1,-1,-1,-1,-1,-1,-1,-1,-1,-1,-1,-1,-1,-1,-1,-1,-1,-1,-1,-1,-1,-1,-1,-1,-1,-1,-1,-1,-1,-1,-1,-1,-1,-1,-1,-1,-1,-1],"loss_changes":[1.09997305E5,2.7954727E3,5.2726914E3,3.9152042E2,1.3341367E3,8.2722656E2,3.346524E3,3.713774E2,1.0206262E2,9.780625E2,1.1617371E1,5.6934766E2,1.4204532E3,2.2112964E3,1.553103E3,1.0275923E2,1.7129517E-1,1.4019226E1,8.233082E1,5.265469E2,3.6252966E2,2.388794E0,0E0,8.9568164E2,1.8264844E2,7.593763E2,5.6918213E1,1.9452817E3,9.4997327E2,1.0404293E3,6.1920215E2,4.390042E1,0E0,0E0,0E0,2.8807373E0,2.9083042E1,0E0,5.060637E1,2.6257812E1,8.944009E2,1.9299988E1,4.049054E1,1.1547852E0,0E0,3.2759277E1,1.5049011E3,9.163513E2,3.2492188E1,7.1046844E1,6.9066187E2,3.9284424E1,1.1570675E2,9.8902734E2,1.362749E2,4.4168866E2,8.821493E2,1.4131427E2,9.0269415E2,8.331101E2,1.7474902E2,0E0,0E0,0E0,0E0,0E0,0E0,0E0,0E0,0E0,0E0,0E0,0E0,0E0,0E0,0E0,0E0,0E0,0E0,0E0,0E0,0E0,0E0,0E0,0E0,0E0,0E0,0E0,0E0,0E0,0E0,0E0,0E0,0E0,0E0,0E0,0E0,0E0,0E0,0E0,0E0,0E0,0E0,0E0,0E0,0E0,0E0,0E0,0E0,0E0,0E0],"parents":[2147483647,0,0,1,1,2,2,3,3,4,4,5,5,6,6,7,7,8,8,9,9,10,10,11,11,12,12,13,13,14,14,15,15,16,16,17,17,18,18,19,19,20,20,21,21,23,23,24,24,25,25,26,26,27,27,28,28,29,29,30,30,31,31,35,35,36,36,38,38,39,39,40,40,41,41,42,42,43,43,45,45,46,46,47,47,48,48,49,49,50,50,51,51,52,52,53,53,54,54,55,55,56,56,57,57,58,58,59,59,60,60],"right_children":[2,4,6,8,10,12,14,16,18,20,22,24,26,28,30,32,34,36,38,40,42,44,-1,46,48,50,52,54,56,58,60,62,-1,-1,-1,64,66,-1,68,70,72,74,76,78,-1,80,82,84,86,88,90,92,94,96,98,100,102,104,106,108,110,-1,-1,-1,-1,-1,-1,-1,-1,-1,-1,-1,-1,-1,-1,-1,-1,-1,-1,-1,-1,-1,-1,-1,-1,-1,-1,-1,-1,-1,-1,-1,-1,-1,-1,-1,-1,-1,-1,-1,-1,-1,-1,-1,-1,-1,-1,-1,-1,-1,-1],"split_conditions":[-1.784969E0,-1.6328155E-1,7.537479E-1,-1.3643168E0,6.527206E-1,5.724953E0,-2.0563237E-1,2.4970247E-1,9.382958E-1,1.9523066E0,-1.1761409E-1,-4.4283074E-1,-3.185317E-1,2.711672E-1,1.5040774E0,9.264478E-1,-4.7351637E-1,8.87055E-1,8.847793E-1,-1.6599141E0,3.3866337E-1,1.7695466E0,-4.2064625E-1,-2.4768679E-1,6.3657683E-1,6.783186E-1,1.5277195E0,1.267465E0,-6.5115297E-1,1.1402357E-2,-4.988435E-1,-8.311857E-1,-4.2093733E-1,-3.95326E-1,-5.0403804E-1,-4.7351637E-1,-1.8638781E0,-4.109656E-1,1.0338734E0,-4.3286797E-1,8.2390803E-1,-6.424465E-2,-2.1414952E-1,1.0919234E0,-3.6262596E-1,-1.5262341E0,-7.014969E-1,5.161261E-1,5.419376E0,-1.4194223E0,8.817399E-1,2.583464E0,-1.0785548E-1,1.2622806E0,1.6844545E-1,-5.4008335E-1,-1.7818798E0,5.329801E0,2.6538706E-1,-1.3280454E0,-1.4843106E0,4.411192E-1,-4.3562287E-1,-4.0301967E-1,-4.9084404E-1,-3.9126855E-1,4.532403E-2,-4.013775E-1,3.687827E-1,-4.3357083E-1,4.0276787E-1,3.2096606E-1,-2.9710805E-1,3.1317347E-1,-4.3649927E-1,4.6470973E-1,-3.6857688E-1,-5.3533864E-1,-7.0028126E-1,-2.9497424E-1,-3.9898875E-1,2.3411973E-1,-2.8297752E-1,-3.9481497E-1,5.3448987E-1,-4.049289E-1,-3.4007773E-1,1.7853667E-1,-4.024228E-1,3.6603612E-1,-4.584801E-1,-4.1698965E-1,-2.704034E-1,-4.0628508E-1,5.2615684E-1,2.768263E-1,-3.4732422E-1,-4.2825022E-1,-5.346867E-2,3.2995525E-1,-3.542311E-1,1.754901E-1,-3.7221584E-1,-3.92706E-1,3.6620513E-1,1.9519502E-1,-4.0736288E-1,4.588434E-1,-2.6357028E-1,-1.3911484E-1,-3.8327736E-1],"split_indices":[13,3,3,9,9,28,11,15,29,0,25,13,25,13,28,4,3,29,10,11,18,3,0,3,28,6,14,2,7,15,7,2,0,0,0,3,13,0,16,10,14,3,25,28,0,13,18,20,28,18,5,6,1,0,10,12,18,3,23,12,15,0,0,0,0,0,0,0,0,0,0,0,0,0,0,0,0,0,0,0,0,0,0,0,0,0,0,0,0,0,0,0,0,0,0,0,0,0,0,0,0,0,0,0,0,0,0,0,0,0,0],"split_type":[0,0,0,0,0,0,0,0,0,0,0,0,0,0,0,0,0,0,0,0,0,0,0,0,0,0,0,0,0,0,0,0,0,0,0,0,0,0,0,0,0,0,0,0,0,0,0,0,0,0,0,0,0,0,0,0,0,0,0,0,0,0,0,0,0,0,0,0,0,0,0,0,0,0,0,0,0,0,0,0,0,0,0,0,0,0,0,0,0,0,0,0,0,0,0,0,0,0,0,0,0,0,0,0,0,0,0,0,0,0,0],"sum_hessian":[8.964497E4,3.97119E4,4.9933066E4,7.6736475E2,3.8944535E4,3.4188242E4,1.5744827E4,2.4941472E2,5.179501E2,3.8807496E4,1.3703633E2,3.1798344E4,2.389897E3,6.6627173E3,9.08211E3,1.7716168E2,7.225304E1,4.4176315E2,7.61869E1,3.8560848E4,2.4664969E2,8.379392E1,5.32424E1,7.949996E3,2.3848348E4,9.773208E2,1.412576E3,4.0561367E3,2.6065803E3,2.1665457E3,6.9155645E3,1.635362E2,1.3625498E1,3.6962948E1,3.5290085E1,3.779096E2,6.385353E1,2.9026957E1,4.7159943E1,3.4842883E4,3.7179639E3,1.8157057E2,6.50791E1,7.633053E1,7.4633994E0,4.5651934E3,3.3848027E3,7.1665076E2,2.3131697E4,2.562878E2,7.21033E2,1.3628751E3,4.9700912E1,3.4738513E3,5.8228534E2,4.8057614E2,2.1260042E3,6.501578E2,1.516388E3,7.794845E2,6.13608E3,1.5898833E2,4.5478706E0,3.0996854E2,6.794106E1,4.4452217E1,1.9401314E1,8.657149E0,3.8502792E1,2.611527E0,3.4840273E4,3.494494E3,2.2346986E2,2.475565E0,1.7909502E2,6.0070236E1,5.00887E0,3.033442E1,4.5996105E1,3.0640427E2,4.258789E3,6.192572E2,2.7655457E3,6.041601E2,1.12490654E2,2.2373916E4,7.5778143E2,2.0032896E1,2.3625493E2,6.145263E2,1.0650671E2,1.1622772E3,2.0059798E2,3.1832329E1,1.7868582E1,3.2288025E3,2.4504897E2,4.7497018E2,1.0731518E2,3.7146866E2,1.09107506E2,3.091492E2,1.8168551E3,6.280219E2,2.213586E1,1.244596E3,2.71792E2,1.887692E2,5.907153E2,2.7780188E2,5.8582783E3],"tree_param":{"num_deleted":"0","num_feature":"30","num_nodes":"111","size_leaf_vector":"1"}},{"base_weights":[6.1136985E-4,1.1138736E0,-8.672099E-1,1.223644E0,3.885984E-1,-1.0840253E0,-4.4759268E-1,-1.1460413E0,1.2253195E0,-1.807375E-1,1.045834E0,-1.1704375E0,-8.0395156E-1,-1.7831998E-1,-1.100812E0,-3.672594E-1,-6.9978116E-3,-3.9314038E-1,1.2257868E0,2.8271267E-1,-1.2027823E0,-9.7938724E-2,1.1449766E0,-6.7642105E-1,-1.1859022E0,-1.0893593E0,5.5491615E-2,4.8896626E-1,-4.9391615E-1,-1.1278689E0,8.239176E-1,1.2263603E0,-5.762323E-1,-6.294026E-1,9.354543E-1,-1.500623E0,1.0924103E0,9.865898E-1,-1.8477175E0,-2.1782007E0,1.1622554E0,1.0405546E0,-1.1525245E0,-1.0453109E0,-1.2298125E0,-7.10792E-1,-1.2274553E0,-1.1588035E0,8.421785E-1,8.5149425E-1,-6.6278064E-1,-1.1123233E-1,-1.0489947E0,1.2460945E0,-1.1466477E0,1.4444997E0,-3.8428572E-1,2.841891E-1,3.6862743E-1,3.7067875E-1,-4.096106E-1,-3.6695978E-1,1.648322E-1,3.6280686E-1,-1.4207672E-1,-4.7142804E-1,-1.754432E-1,3.7783036E-1,-4.9038976E-1,3.4946042E-1,-9.167982E-1,-6.8858343E-1,-3.798798E-1,-8.131508E-1,-2.8768924E-1,3.5182512E-1,-9.375159E-1,5.5261815E-1,-4.1409728E-1,-3.6819595E-1,-5.2709337E-2,-3.7900952E-1,-2.4812332E-1,-3.6931956E-1,-2.9639563E-1,-4.436988E-2,-3.1931186E-1,-2.1195295E-1,-3.7359166E-1,-3.9512792E-1,1.6852573E-1,3.7342536E-1,-3.624562E-1,3.1189352E-1,-2.0065011E-1,2.781481E-1,-3.630206E-1,1.677264E-1,-1.4167738E-1,-1.6839556E-1,-3.9068565E-1,-2.6410553E-1,4.0886188E-1,-3.8666156E-1,-2.620802E-1,4.8132038E-1,-3.017672E-1],"categories":[],"categories_nodes":[],"categories_segments":[],"categories_sizes":[],"default_left":[0,0,0,0,0,0,0,0,0,0,0,0,0,0,0,0,0,0,0,0,0,0,0,0,0,0,0,0,0,0,0,0,0,0,0,0,0,0,0,0,0,0,0,0,0,0,0,0,0,0,0,0,0,0,0,0,0,0,0,0,0,0,0,0,0,0,0,0,0,0,0,0,0,0,0,0,0,0,0,0,0,0,0,0,0,0,0,0,0,0,0,0,0,0,0,0,0,0,0,0,0,0,0,0,0,0,0],"id":3,"left_children":[1,3,5,7,9,11,13,15,17,19,21,23,25,27,29,-1,-1,-1,31,33,35,37,39,41,43,45,47,49,51,53,55,57,59,61,63,65,67,69,71,73,75,77,79,81,83,85,87,89,91,93,95,97,99,101,103,105,-1,-1,-1,-1,-1,-1,-1,-1,-1,-1,-1,-1,-1,-1,-1,-1,-1,-1,-1,-1,-1,-1,-1,-1,-1,-1,-1,-1,-1,-1,-1,-1,-1,-1,-1,-1,-1,-1,-1,-1,-1,-1,-1,-1,-1,-1,-1,-1,-1,-1,-1],"loss_changes":[7.143717E4,2.578293E3,3.7798867E3,1.1310156E2,1.5940054E3,6.620781E2,2.489993E3,1.7609711E0,3.491797E1,1.0818037E3,2.24323E2,1.5913086E2,1.5853052E3,2.1116536E3,2.1612793E2,0E0,0E0,0E0,2.9757812E1,9.363231E2,4.887079E2,3.0286612E2,1.0701367E2,5.225351E2,1.2401758E2,2.5276318E2,1.540948E3,1.3449553E3,1.4458754E3,1.8311182E2,7.743276E1,1.7632812E1,1.544629E1,4.5999466E2,3.5428217E2,4.000244E1,3.9598717E1,7.461234E1,1.2980759E1,3.734951E0,8.514282E1,2.7220746E2,3.629895E1,2.2914502E2,3.4667969E0,2.5840686E2,3.2163574E1,1.7346472E2,8.0948364E2,7.0134424E2,6.7236145E2,9.756444E2,3.4239307E2,9.26136E0,1.559165E2,1.9307404E1,0E0,0E0,0E0,0E0,0E0,0E0,0E0,0E0,0E0,0E0,0E0,0E0,0E0,0E0,0E0,0E0,0E0,0E0,0E0,0E0,0E0,0E0,0E0,0E0,0E0,0E0,0E0,0E0,0E0,0E0,0E0,0E0,0E0,0E0,0E0,0E0,0E0,0E0,0E0,0E0,0E0,0E0,0E0,0E0,0E0,0E0,0E0,0E0,0E0,0E0,0E0],"parents":[2147483647,0,0,1,1,2,2,3,3,4,4,5,5,6,6,7,7,8,8,9,9,10,10,11,11,12,12,13,13,14,14,18,18,19,19,20,20,21,21,22,22,23,23,24,24,25,25,26,26,27,27,28,28,29,29,30,30,31,31,32,32,33,33,34,34,35,35,36,36,37,37,38,38,39,39,40,40,41,41,42,42,43,43,44,44,45,45,46,46,47,47,48,48,49,49,50,50,51,51,52,52,53,53,54,54,55,55],"right_children":[2,4,6,8,10,12,14,16,18,20,22,24,26,28,30,-1,-1,-1,32,34,36,38,40,42,44,46,48,50,52,54,56,58,60,62,64,66,68,70,72,74,76,78,80,82,84,86,88,90,92,94,96,98,100,102,104,106,-1,-1,-1,-1,-1,-1,-1,-1,-1,-1,-1,-1,-1,-1,-1,-1,-1,-1,-1,-1,-1,-1,-1,-1,-1,-1,-1,-1,-1,-1,-1,-1,-1,-1,-1,-1,-1,-1,-1,-1,-1,-1,-1,-1,-1,-1,-1,-1,-1,-1,-1],"split_conditions":[-1.6822355E0,-1.8847152E0,7.0470685E-1,-5.4560345E-1,1.959921E0,6.962589E-1,1.7297292E-1,2.583464E0,-6.663332E-1,2.2348968E-2,-3.0389315E-1,6.3657683E-1,9.787783E-2,-4.6121258E-1,5.329801E0,-3.672594E-1,-6.9978116E-3,-3.9314038E-1,3.1449917E-1,-2.3846578E-2,3.099915E0,-3.9866695E-1,-7.0648134E-1,-3.7641716E-1,-4.2580485E-1,-8.733934E-1,1.2130944E-1,8.32029E-2,9.4356644E-1,-3.8028038E0,-9.8033303E-1,6.534308E-1,-7.8185335E-2,1.6829276E-1,-1.2196711E-1,5.048509E0,-3.3657804E-1,8.704026E-1,6.527206E-1,6.003651E-1,9.42914E-1,-8.737596E-1,6.1725163E-1,7.51878E-2,1.6486235E0,-1.442841E-1,-9.3305194E-1,3.0702438E0,6.647814E-2,6.8622965E-1,-1.0222497E0,2.163323E0,9.2403814E-2,-3.0207545E-2,5.344446E-1,-4.0855892E-2,-3.8428572E-1,2.841891E-1,3.6862743E-1,3.7067875E-1,-4.096106E-1,-3.6695978E-1,1.648322E-1,3.6280686E-1,-1.4207672E-1,-4.7142804E-1,-1.754432E-1,3.7783036E-1,-4.9038976E-1,3.4946042E-1,-9.167982E-1,-6.8858343E-1,-3.798798E-1,-8.131508E-1,-2.8768924E-1,3.5182512E-1,-9.375159E-1,5.5261815E-1,-4.1409728E-1,-3.6819595E-1,-5.2709337E-2,-3.7900952E-1,-2.4812332E-1,-3.6931956E-1,-2.9639563E-1,-4.436988E-2,-3.1931186E-1,-2.1195295E-1,-3.7359166E-1,-3.9512792E-1,1.6852573E-1,3.7342536E-1,-3.624562E-1,3.1189352E-1,-2.0065011E-1,2.781481E-1,-3.630206E-1,1.677264E-1,-1.4167738E-1,-1.6839556E-1,-3.9068565E-1,-2.6410553E-1,4.0886188E-1,-3.8666156E-1,-2.620802E-1,4.8132038E-1,-3.017672E-1],"split_indices":[13,9,3,3,3,6,7,6,10,26,20,28,3,13,3,0,0,0,11,26,20,9,10,19,13,9,17,12,0,16,24,10,1,20,25,28,11,6,9,9,29,12,3,17,21,4,19,6,12,29,11,28,13,25,10,11,0,0,0,0,0,0,0,0,0,0,0,0,0,0,0,0,0,0,0,0,0,0,0,0,0,0,0,0,0,0,0,0,0,0,0,0,0,0,0,0,0,0,0,0,0,0,0,0,0,0,0],"split_type":[0,0,0,0,0,0,0,0,0,0,0,0,0,0,0,0,0,0,0,0,0,0,0,0,0,0,0,0,0,0,0,0,0,0,0,0,0,0,0,0,0,0,0,0,0,0,0,0,0,0,0,0,0,0,0,0,0,0,0,0,0,0,0,0,0,0,0,0,0,0,0,0,0,0,0,0,0,0,0,0,0,0,0,0,0,0,0,0,0,0,0,0,0,0,0,0,0,0,0,0,0,0,0,0,0,0,0],"sum_hessian":[7.39409E4,3.2389975E4,4.1550926E4,2.8131572E4,4.2584014E3,2.7394607E4,1.4156318E4,1.9394054E1,2.8112178E4,2.2821738E3,1.9762277E3,2.0932916E4,6.461692E3,1.0025032E4,4.1312866E3,1.804732E1,1.3467362E0,4.6626515E0,2.8107516E4,1.5706707E3,7.115033E2,1.5763705E2,1.8185906E3,6.3675244E2,2.0296164E4,4.8506113E3,1.6110804E3,3.2187861E3,6.8062456E3,4.0744243E3,5.686239E1,2.8098893E4,8.623337E0,6.551816E2,9.15489E2,6.300851E2,8.141821E1,9.758757E1,6.0049484E1,8.759956E0,1.8098306E3,1.379775E2,4.9877496E2,4.836276E3,1.5459888E4,1.298135E3,3.5524766E3,6.33211E2,9.778695E2,2.4483845E3,7.704016E2,4.0294507E3,2.776795E3,3.1463963E1,4.0429602E3,4.4157192E1,1.2705199E1,2.4275851E2,2.7856135E4,2.4446812E0,6.178656E0,4.356847E2,2.194969E2,7.666104E2,1.4887859E2,5.84203E2,4.588207E1,7.722646E1,4.191747E0,9.414751E1,3.4400609E0,3.226594E1,2.7783543E1,5.246356E0,3.5136006E0,1.8061359E3,3.6947634E0,1.0383788E2,3.413961E1,4.6306198E2,3.5712997E1,2.4167349E3,2.4195413E3,1.5376152E4,8.3735916E1,5.0137537E2,7.9675964E2,1.1903782E2,3.4334387E3,5.800788E2,5.3132206E1,8.177114E2,1.601581E2,2.179031E3,2.6935364E2,1.9710179E2,5.732998E2,1.4103287E3,2.619122E3,9.5031384E2,1.8264811E3,1.297569E0,3.0166393E1,2.655861E3,1.3870992E3,4.1776302E1,2.3808892E0],"tree_param":{"num_deleted":"0","num_feature":"30","num_nodes":"107","size_leaf_vector":"1"}},{"base_weights":[1.0518364E-3,1.0268116E0,-7.7051944E-1,1.1528798E0,3.4721053E-1,-1.0255096E0,-4.301763E-1,1.1539758E0,-3.3540896E-1,-1.1996625E-1,9.714898E-1,-1.1349003E0,-8.533888E-1,-5.079324E-2,-7.558668E-1,-3.0476922E-1,1.1544008E0,-5.199538E-1,6.8908876E-1,-9.7856796E-1,1.0454E0,-1.1566601E0,-3.2692543E-1,-1.1624115E0,-5.3320456E-1,4.3140295E-1,-3.8032538E-1,-1.7151083E-1,-9.049504E-1,1.1582658E0,9.025603E-1,-5.5572886E-2,-1.2120135E0,1.042824E0,-1.3935194E0,9.9043137E-1,-1.6297017E0,-2.21569E0,1.087972E0,-9.4479424E-1,-1.164799E0,-1.1647625E0,4.9454626E-1,-1.1786214E0,-4.4597197E-1,5.854534E-1,-7.809526E-1,7.052478E-1,-6.283006E-1,-6.2183654E-1,7.0359063E-1,-1.1144675E0,2.907987E-1,-4.0595496E-1,-1.0477362E0,3.4751874E-1,-1.1379362E-1,3.1024125E-1,-1.0814329E0,1.8196082E-1,-1.7712878E-1,-2.1596314E-1,-4.210513E-1,3.4976882E-1,-6.6020536E-1,-3.6056444E-1,-5.10493E-1,3.4018615E-1,-1.629344E-1,-5.6130105E-1,-2.400077E-1,-7.9371655E-1,-3.2610562E-1,-4.7980386E-1,3.347007E-1,-3.112877E-1,4.8031062E-2,-3.5021743E-1,-2.539984E-1,-3.864851E-1,-1.3035001E-1,-4.5448217E-1,2.94656E-1,1.4497119E-1,-3.548543E-1,1.6250892E-1,-3.791338E-1,-3.5628816E-1,3.2417846E-1,-2.7259377E-1,1.4487521E-1,2.567129E-1,-3.0087462E-1,4.0041545E-1,-2.7134237E-1,7.730549E-2,-2.4824539E-1,-2.69393E-1,3.220077E-1,-3.971017E-1,-2.104199E-1,-6.537195E-2,4.4119427E-1,2.4126197E-1,-2.2308381E-1,-1.3397269E-1,-3.3291632E-1],"categories":[],"categories_nodes":[],"categories_segments":[],"categories_sizes":[],"default_left":[0,0,0,0,0,0,0,0,0,0,0,0,0,0,0,0,0,0,0,0,0,0,0,0,0,0,0,0,0,0,0,0,0,0,0,0,0,0,0,0,0,0,0,0,0,0,0,0,0,0,0,0,0,0,0,0,0,0,0,0,0,0,0,0,0,0,0,0,0,0,0,0,0,0,0,0,0,0,0,0,0,0,0,0,0,0,0,0,0,0,0,0,0,0,0,0,0,0,0,0,0,0,0,0,0,0,0],"id":4,"left_children":[1,3,5,7,9,11,13,15,-1,17,19,21,23,25,27,-1,29,31,33,35,37,39,41,43,45,47,49,51,53,55,57,59,61,63,65,67,69,71,73,75,77,79,81,83,85,87,89,91,93,95,97,99,101,103,105,-1,-1,-1,-1,-1,-1,-1,-1,-1,-1,-1,-1,-1,-1,-1,-1,-1,-1,-1,-1,-1,-1,-1,-1,-1,-1,-1,-1,-1,-1,-1,-1,-1,-1,-1,-1,-1,-1,-1,-1,-1,-1,-1,-1,-1,-1,-1,-1,-1,-1,-1,-1],"loss_changes":[4.7616402E4,2.2124043E3,2.9793965E3,5.551367E1,1.1792034E3,3.6861133E2,1.8173574E3,2.125E1,0E0,7.4895844E2,2.5044812E2,2.1056934E2,7.544678E2,1.0799243E3,6.893115E2,0E0,2.0146484E1,4.976007E2,5.655585E2,8.3298676E1,2.3396045E2,1.9043945E1,2.1809995E2,4.4564453E1,1.0397208E3,8.0111694E2,1.0572766E3,7.021494E2,4.4882178E2,4.7246094E0,2.0158163E2,3.2890665E2,5.7586243E1,2.6408124E2,4.544876E0,4.237644E0,8.164337E0,7.715576E0,1.243739E2,4.504077E1,8.288086E0,1.3580811E1,1.5855252E2,2.723291E1,7.136902E1,5.986918E2,4.9596545E2,5.644845E2,3.086574E2,5.9746387E2,4.368863E2,4.485852E1,6.4917725E2,5.7448486E2,1.8216016E2,0E0,0E0,0E0,0E0,0E0,0E0,0E0,0E0,0E0,0E0,0E0,0E0,0E0,0E0,0E0,0E0,0E0,0E0,0E0,0E0,0E0,0E0,0E0,0E0,0E0,0E0,0E0,0E0,0E0,0E0,0E0,0E0,0E0,0E0,0E0,0E0,0E0,0E0,0E0,0E0,0E0,0E0,0E0,0E0,0E0,0E0,0E0,0E0,0E0,0E0,0E0,0E0],"parents":[2147483647,0,0,1,1,2,2,3,3,4,4,5,5,6,6,7,7,9,9,10,10,11,11,12,12,13,13,14,14,16,16,17,17,18,18,19,19,20,20,21,21,22,22,23,23,24,24,25,25,26,26,27,27,28,28,29,29,30,30,31,31,32,32,33,33,34,34,35,35,36,36,37,37,38,38,39,39,40,40,41,41,42,42,43,43,44,44,45,45,46,46,47,47,48,48,49,49,50,50,51,51,52,52,53,53,54,54],"right_children":[2,4,6,8,10,12,14,16,-1,18,20,22,24,26,28,-1,30,32,34,36,38,40,42,44,46,48,50,52,54,56,58,60,62,64,66,68,70,72,74,76,78,80,82,84,86,88,90,92,94,96,98,100,102,104,106,-1,-1,-1,-1,-1,-1,-1,-1,-1,-1,-1,-1,-1,-1,-1,-1,-1,-1,-1,-1,-1,-1,-1,-1,-1,-1,-1,-1,-1,-1,-1,-1,-1,-1,-1,-1,-1,-1,-1,-1,-1,-1,-1,-1,-1,-1,-1,-1,-1,-1,-1,-1],"split_conditions":[-1.594479E0,-1.7742302E0,4.766771E-1,1.2099105E0,1.8549783E0,-2.4768679E-1,-8.055057E-2,-4.131102E-1,-3.3540896E-1,4.6341333E0,5.6060696E-1,2.1752741E0,1.1293885E-1,-1.5624776E-1,1.0224509E0,-3.0476922E-1,2.2157946E0,1.2633407E-1,-8.733934E-1,-2.831098E0,-2.875229E-2,-1.2233663E0,2.5537887E-1,1.922718E0,-8.50574E-1,6.4265126E-1,3.9445505E-1,2.4239703E-1,-4.6121258E-1,1.8747128E0,1.4667797E0,-2.1241568E-1,-6.894335E-1,1.1009127E0,3.207507E-1,-6.7935145E-1,-1.784969E0,6.275809E-1,-1.0166835E0,5.313206E0,1.922718E0,-5.136489E-1,-1.4039614E0,-4.063549E0,-7.651204E-1,3.255967E-2,4.6943948E-1,1.7297292E-1,-2.9006224E0,-1.4890238E0,-2.2119675E-2,1.2925337E-1,7.019152E-1,-2.8771785E-1,-1.220206E0,3.4751874E-1,-1.1379362E-1,3.1024125E-1,-1.0814329E0,1.8196082E-1,-1.7712878E-1,-2.1596314E-1,-4.210513E-1,3.4976882E-1,-6.6020536E-1,-3.6056444E-1,-5.10493E-1,3.4018615E-1,-1.629344E-1,-5.6130105E-1,-2.400077E-1,-7.9371655E-1,-3.2610562E-1,-4.7980386E-1,3.347007E-1,-3.112877E-1,4.8031062E-2,-3.5021743E-1,-2.539984E-1,-3.864851E-1,-1.3035001E-1,-4.5448217E-1,2.94656E-1,1.4497119E-1,-3.548543E-1,1.6250892E-1,-3.791338E-1,-3.5628816E-1,3.2417846E-1,-2.7259377E-1,1.4487521E-1,2.567129E-1,-3.0087462E-1,4.0041545E-1,-2.7134237E-1,7.730549E-2,-2.4824539E-1,-2.69393E-1,3.220077E-1,-3.971017E-1,-2.104199E-1,-6.537195E-2,4.4119427E-1,2.4126197E-1,-2.2308381E-1,-1.3397269E-1,-3.3291632E-1],"split_indices":[13,11,3,9,3,3,11,10,0,28,17,6,17,13,28,0,16,14,9,6,27,13,14,6,18,29,22,24,13,15,12,21,12,17,3,15,13,9,21,28,6,0,0,22,15,6,20,7,2,18,21,6,28,19,12,0,0,0,0,0,0,0,0,0,0,0,0,0,0,0,0,0,0,0,0,0,0,0,0,0,0,0,0,0,0,0,0,0,0,0,0,0,0,0,0,0,0,0,0,0,0,0,0,0,0,0,0],"split_type":[0,0,0,0,0,0,0,0,0,0,0,0,0,0,0,0,0,0,0,0,0,0,0,0,0,0,0,0,0,0,0,0,0,0,0,0,0,0,0,0,0,0,0,0,0,0,0,0,0,0,0,0,0,0,0,0,0,0,0,0,0,0,0,0,0,0,0,0,0,0,0,0,0,0,0,0,0,0,0,0,0,0,0,0,0,0,0,0,0,0,0,0,0,0,0,0,0,0,0,0,0,0,0,0,0,0,0],"sum_hessian":[6.016175E4,2.582653E4,3.433522E4,2.1784697E4,4.0418315E3,1.9627781E4,1.4707438E4,2.177468E4,1.0017252E1,2.3122654E3,1.7295662E3,1.1997326E4,7.6304556E3,6.7942554E3,7.913183E3,3.7953973E0,2.1770885E4,1.5475377E3,7.6472754E2,6.2712433E1,1.6668538E3,1.1682276E4,3.1504932E2,3.8815679E3,3.7488877E3,2.758095E3,4.0361606E3,1.6089207E3,6.304262E3,2.1438271E4,3.326137E2,9.267542E2,6.207835E2,6.5412274E2,1.106048E2,1.5455278E1,4.7257156E1,2.0821795E1,1.646032E3,4.365057E2,1.1245771E4,1.5576414E2,1.5928517E2,3.7950571E3,8.6510796E1,6.7947723E2,3.0694106E3,2.1919844E3,5.661105E2,3.301065E3,7.350957E2,5.288444E2,1.0800763E3,1.4034502E3,4.900812E3,2.1436705E4,1.565626E0,3.2392822E2,8.685474E0,4.1405438E2,5.126998E2,1.752207E2,4.4556284E2,6.308271E2,2.3295635E1,7.1213875E1,3.9390926E1,1.43708935E1,1.0843848E0,3.563734E1,1.1619813E1,1.4103975E1,6.7178197E0,1.6212986E1,1.629819E3,4.0272998E2,3.3775745E1,1.1152221E4,9.354996E1,1.3257538E2,2.3188763E1,3.0693907E1,1.2859126E2,9.339153E0,3.785718E3,3.9338814E1,4.7171978E1,1.4802115E2,5.3145605E2,2.788009E3,2.8140152E2,2.0149948E3,1.7698973E2,6.934928E1,4.9676117E2,6.255294E2,2.6755356E3,1.3761578E2,5.974799E2,3.4958633E2,1.7925807E2,7.552549E2,3.2482138E2,3.058621E2,1.0975881E3,4.5885065E2,4.4419614E3],"tree_param":{"num_deleted":"0","num_feature":"30","num_nodes":"107","size_leaf_vector":"1"}},{"base_weights":[1.5447491E-3,9.6789056E-1,-6.8129444E-1,1.1042259E0,3.004837E-1,-9.567861E-1,-3.5981587E-1,1.1053059E0,-3.1314874E-1,-3.6272743E-1,6.800032E-1,-1.0827848E0,-7.7285975E-1,-1.3477318E-1,-8.934084E-1,1.1099466E0,8.187416E-1,4.409363E-1,-8.6950713E-1,7.746518E-1,-1.2567308E0,-1.105985E0,-2.9457697E-1,-1.1031334E0,-4.6877757E-1,1.7631389E-1,-7.1730673E-1,-1.0507088E0,-5.5761355E-1,-2.638697E-1,1.1103257E0,9.6797174E-1,-1.6053724E0,7.816946E-1,-6.177027E-1,-1.0886075E0,8.9895797E-1,-1.3005531E0,8.5829407E-1,-4.328843E-1,-3.4436283E-1,-8.6612374E-1,-1.1156398E0,-1.2515827E0,2.8232092E-1,-1.1257347E0,-4.760632E-1,-1.0317018E0,-4.4416104E-2,4.124523E-1,-5.975541E-1,-8.877973E-1,4.520997E-1,-6.6304576E-1,-1.1467855E0,-1.016298E0,1.9641499E-1,3.331611E-1,-3.2438163E-2,3.0733246E-1,-7.62045E-1,2.533679E-1,-6.768627E-1,2.822203E-1,-3.293003E-1,2.7267802E-1,-4.6920344E-1,2.661536E-1,-3.4379116E-1,-3.8852027E-1,3.4714746E-1,-3.456124E-1,-4.3288183E-1,2.792903E-1,-3.3960676E-1,-2.9326725E-1,7.093719E-2,-3.3572698E-1,-2.1932277E-1,-4.407434E-1,-3.431713E-1,-3.319221E-1,2.4176104E-1,8.837511E-2,-3.3904764E-1,-2.9488117E-1,2.895086E-1,-3.208951E-1,1.2092803E-1,1.149907E-1,-3.0908716E-1,-1.689206E-1,1.7135286E-1,7.1564384E-2,-3.292145E-1,-1.5041138E-1,-3.58079E-1,-4.2455065E-1,2.8929812E-1,9.720123E-2,-3.07017E-1,2.7770507E-1,-3.4757724E-1,-3.5042775E-1,2.0627552E-1,3.1545466E-1,-2.6390395E-1],"categories":[],"categories_nodes":[],"categories_segments":[],"categories_sizes":[],"default_left":[0,0,0,0,0,0,0,0,0,0,0,0,0,0,0,0,0,0,0,0,0,0,0,0,0,0,0,0,0,0,0,0,0,0,0,0,0,0,0,0,0,0,0,0,0,0,0,0,0,0,0,0,0,0,0,0,0,0,0,0,0,0,0,0,0,0,0,0,0,0,0,0,0,0,0,0,0,0,0,0,0,0,0,0,0,0,0,0,0,0,0,0,0,0,0,0,0,0,0,0,0,0,0,0,0,0,0],"id":5,"left_children":[1,3,5,7,9,11,13,15,-1,17,19,21,23,25,27,29,31,33,35,37,39,41,43,45,47,49,51,53,55,-1,57,59,61,63,65,67,69,71,73,-1,-1,75,77,79,81,83,85,87,89,91,93,95,97,99,101,103,105,-1,-1,-1,-1,-1,-1,-1,-1,-1,-1,-1,-1,-1,-1,-1,-1,-1,-1,-1,-1,-1,-1,-1,-1,-1,-1,-1,-1,-1,-1,-1,-1,-1,-1,-1,-1,-1,-1,-1,-1,-1,-1,-1,-1,-1,-1,-1,-1,-1,-1],"loss_changes":[3.2123436E4,1.833752E3,2.5260137E3,3.998047E1,8.611852E2,3.5514355E2,1.5808273E3,2.133789E1,0E0,5.0768854E2,3.998329E2,1.663291E2,6.270115E2,1.6784579E3,2.0569482E2,1.3394531E1,9.9376495E1,1.7449068E2,2.970952E2,3.613048E2,4.0646362E-1,1.953418E1,1.4496971E2,4.1903564E1,7.775031E2,1.1036484E3,6.432311E2,9.825122E1,4.3181577E2,0E0,4.3554688E0,5.3189056E1,2.7509533E1,1.1023256E2,1.7191467E2,7.813495E1,4.953356E1,4.6188354E-2,2.8966418E2,0E0,0E0,4.28667E1,1.0467773E1,6.316376E-1,1.20306366E2,1.848999E1,7.830781E1,7.660486E1,7.8341504E2,7.167576E2,5.9039215E2,3.319685E2,3.9439792E2,1.8896657E2,5.3161133E1,2.0153302E2,4.360259E2,0E0,0E0,0E0,0E0,0E0,0E0,0E0,0E0,0E0,0E0,0E0,0E0,0E0,0E0,0E0,0E0,0E0,0E0,0E0,0E0,0E0,0E0,0E0,0E0,0E0,0E0,0E0,0E0,0E0,0E0,0E0,0E0,0E0,0E0,0E0,0E0,0E0,0E0,0E0,0E0,0E0,0E0,0E0,0E0,0E0,0E0,0E0,0E0,0E0,0E0],"parents":[2147483647,0,0,1,1,2,2,3,3,4,4,5,5,6,6,7,7,9,9,10,10,11,11,12,12,13,13,14,14,15,15,16,16,17,17,18,18,19,19,20,20,21,21,22,22,23,23,24,24,25,25,26,26,27,27,28,28,30,30,31,31,32,32,33,33,34,34,35,35,36,36,37,37,38,38,41,41,42,42,43,43,44,44,45,45,46,46,47,47,48,48,49,49,50,50,51,51,52,52,53,53,54,54,55,55,56,56],"right_children":[2,4,6,8,10,12,14,16,-1,18,20,22,24,26,28,30,32,34,36,38,40,42,44,46,48,50,52,54,56,-1,58,60,62,64,66,68,70,72,74,-1,-1,76,78,80,82,84,86,88,90,92,94,96,98,100,102,104,106,-1,-1,-1,-1,-1,-1,-1,-1,-1,-1,-1,-1,-1,-1,-1,-1,-1,-1,-1,-1,-1,-1,-1,-1,-1,-1,-1,-1,-1,-1,-1,-1,-1,-1,-1,-1,-1,-1,-1,-1,-1,-1,-1,-1,-1,-1,-1,-1,-1,-1],"split_conditions":[-1.594479E0,-1.7742302E0,4.5618576E-1,1.2099105E0,3.7887433E-1,-2.772468E-1,1.2479412E-1,2.2157946E0,-3.1314874E-1,-1.5254651E0,5.259657E-1,2.1752741E0,1.1293885E-1,1.0933836E0,1.9052489E0,-4.131102E-1,1.3760024E0,1.2269576E0,2.6152065E0,3.2532286E-2,1.9523066E0,-1.2233663E0,-2.1806887E-1,1.6797533E0,-1.278948E-2,3.2156804E-1,1.0681778E0,1.8707794E-1,4.5168063E-1,-2.638697E-1,1.4893078E0,2.7694588E0,-2.3915446E0,9.23906E-2,-3.9441967E0,-4.1319427E0,5.1250196E-1,-3.0687264E-1,9.213387E-1,-4.328843E-1,-3.4436283E-1,-3.8992205E-1,1.922718E0,-2.676007E-1,-2.0479111E-1,-4.063549E0,-1.2280102E-2,2.583464E0,3.503668E-1,2.6761076E-1,2.0579624E0,3.9834598E-1,1.860091E-1,-5.591656E-1,-3.94105E0,4.999299E0,-5.9376603E-1,3.331611E-1,-3.2438163E-2,3.0733246E-1,-7.62045E-1,2.533679E-1,-6.768627E-1,2.822203E-1,-3.293003E-1,2.7267802E-1,-4.6920344E-1,2.661536E-1,-3.4379116E-1,-3.8852027E-1,3.4714746E-1,-3.456124E-1,-4.3288183E-1,2.792903E-1,-3.3960676E-1,-2.9326725E-1,7.093719E-2,-3.3572698E-1,-2.1932277E-1,-4.407434E-1,-3.431713E-1,-3.319221E-1,2.4176104E-1,8.837511E-2,-3.3904764E-1,-2.9488117E-1,2.895086E-1,-3.208951E-1,1.2092803E-1,1.149907E-1,-3.0908716E-1,-1.689206E-1,1.7135286E-1,7.1564384E-2,-3.292145E-1,-1.5041138E-1,-3.58079E-1,-4.2455065E-1,2.8929812E-1,9.720123E-2,-3.07017E-1,2.7770507E-1,-3.4757724E-1,-3.5042775E-1,2.0627552E-1,3.1545466E-1,-2.6390395E-1],"split_indices":[13,11,3,9,0,3,7,16,0,9,25,6,17,0,3,10,12,1,20,17,0,13,16,6,27,12,16,7,10,0,15,28,9,7,13,6,3,3,14,0,0,3,6,25,8,22,17,6,14,29,28,29,4,13,16,4,14,0,0,0,0,0,0,0,0,0,0,0,0,0,0,0,0,0,0,0,0,0,0,0,0,0,0,0,0,0,0,0,0,0,0,0,0,0,0,0,0,0,0,0,0,0,0,0,0,0,0],"split_type":[0,0,0,0,0,0,0,0,0,0,0,0,0,0,0,0,0,0,0,0,0,0,0,0,0,0,0,0,0,0,0,0,0,0,0,0,0,0,0,0,0,0,0,0,0,0,0,0,0,0,0,0,0,0,0,0,0,0,0,0,0,0,0,0,0,0,0,0,0,0,0,0,0,0,0,0,0,0,0,0,0,0,0,0,0,0,0,0,0,0,0,0,0,0,0,0,0,0,0,0,0,0,0,0,0,0,0],"sum_hessian":[4.8680285E4,2.0155727E4,2.8524559E4,1.6736252E4,3.4194739E3,1.5359894E4,1.3164665E4,1.6728328E4,7.925194E0,1.2445917E3,2.1748823E3,9.112496E3,6.2473975E3,9.260359E3,3.9043047E3,1.6458914E4,2.694141E2,4.813635E2,7.6322815E2,2.0741196E3,1.0076268E2,8.851555E3,2.6094125E2,2.9934666E3,3.2539312E3,6.037099E3,3.2232605E3,2.6573584E3,1.2469463E3,2.6938217E0,1.6456219E4,2.5435643E2,1.505767E1,3.6434766E2,1.1701585E2,6.794353E2,8.379283E1,7.979587E1,1.9943237E3,3.265109E1,6.8111595E1,3.4601224E2,8.505543E3,9.76996E1,1.6324165E2,2.8885605E3,1.0490599E2,1.3980103E3,1.8559208E3,4.6259897E3,1.4111096E3,2.8133381E3,4.0992242E2,5.2935376E2,2.1280046E3,7.7509753E2,4.7184885E2,1.6453455E4,2.7638364E0,2.5102371E2,3.3327155E0,3.0980563E0,1.1959614E1,3.3638107E2,2.796657E1,4.479307E1,7.222277E1,1.8761312E1,6.60674E2,8.399904E0,7.539293E1,4.350757E1,3.62883E1,1.9245826E3,6.974112E1,3.1435495E2,3.1657265E1,8.428022E3,7.752051E1,2.8159716E1,6.953989E1,4.4388012E1,1.18853645E2,8.766062E0,2.8797944E3,7.784393E1,2.706206E1,1.3622355E3,3.5774845E1,1.2947911E3,5.611297E2,6.469949E2,3.9789949E3,5.281512E2,8.8295844E2,1.2439939E3,1.5693442E3,8.7863365E1,3.2205908E2,1.415962E2,3.8775754E2,1.1614533E1,2.1163901E3,7.119833E2,6.3114246E1,2.629349E2,2.0891394E2],"tree_param":{"num_deleted":"0","num_feature":"30","num_nodes":"107","size_leaf_vector":"1"}},{"base_weights":[-5.132741E-4,1.0243672E0,-5.398021E-1,1.0706241E0,3.3670816E-1,-9.712198E-1,-3.0869824E-1,-4.0119934E-1,1.0733759E0,-7.00658E-1,8.737298E-1,-1.002346E0,-1.1724466E-1,1.4564882E-1,-5.661679E-1,2.9852733E-1,-4.6519047E-1,1.0740037E0,-5.922332E-1,9.454038E-1,-1.3186501E0,9.546894E-1,-1.8052932E0,-6.5380204E-1,-1.0657305E0,-1.215371E0,3.6800727E-1,4.288072E-1,-4.1523567E-1,-6.901984E-1,1.4567345E-1,1.0743117E0,-2.8501448E-1,-7.6373506E-1,1.091057E0,-1.3291965E0,-3.5103336E-1,9.793758E-1,-1.8128004E0,2.4133797E-1,-2.3674874E0,-9.608705E-1,-1.3686931E-1,-1.0743653E0,-3.65703E-1,-1.2338486E0,-6.2686276E-1,-9.89182E-1,8.0281305E-1,7.008179E-1,-7.213619E-1,2.3378178E-1,-8.739199E-1,-9.084898E-1,-1.6468965E-1,-7.335892E-1,6.4587754E-1,3.2342932E-1,2.682414E-1,2.3117685E-1,-4.41017E-1,3.364815E-1,-1.406774E-1,-4.1461375E-1,-3.3997232E-1,-3.398119E-1,1.9481565E-1,2.9934078E-1,-6.2464356E-1,9.9875286E-2,-7.265771E-1,-4.0909082E-1,-9.688931E-1,-2.0155895E-1,-3.2869282E-1,1.0176724E-1,-3.600681E-1,-3.2404363E-1,-2.4315892E-1,-3.248872E-1,4.3095872E-1,-4.1689447E-1,-3.377577E-1,-2.658851E-1,6.1671566E-2,-3.6976898E-1,-5.61062E-2,-3.6202288E-1,3.1223738E-1,2.7240735E-1,-1.8686627E-1,-3.1771374E-1,1.9871518E-1,-2.6548377E-1,1.3261488E-1,-2.91612E-1,2.4455903E-1,-2.8059915E-2,-2.9483488E-1,1.3648772E-1,-2.2320513E-1,4.9833268E-2,-4.0340117E-1,-3.1865475E-1,2.9856938E-1],"categories":[],"categories_nodes":[],"categories_segments":[],"categories_sizes":[],"default_left":[0,0,0,0,0,0,0,0,0,0,0,0,0,0,0,0,0,0,0,0,0,0,0,0,0,0,0,0,0,0,0,0,0,0,0,0,0,0,0,0,0,0,0,0,0,0,0,0,0,0,0,0,0,0,0,0,0,0,0,0,0,0,0,0,0,0,0,0,0,0,0,0,0,0,0,0,0,0,0,0,0,0,0,0,0,0,0,0,0,0,0,0,0,0,0,0,0,0,0,0,0,0,0,0,0],"id":6,"left_children":[1,3,5,7,9,11,13,15,17,19,21,23,25,27,29,-1,-1,31,-1,33,35,37,39,41,43,45,47,49,51,53,55,57,-1,59,61,63,65,67,69,-1,71,73,75,77,79,81,83,85,87,89,91,93,95,97,99,101,103,-1,-1,-1,-1,-1,-1,-1,-1,-1,-1,-1,-1,-1,-1,-1,-1,-1,-1,-1,-1,-1,-1,-1,-1,-1,-1,-1,-1,-1,-1,-1,-1,-1,-1,-1,-1,-1,-1,-1,-1,-1,-1,-1,-1,-1,-1,-1,-1],"loss_changes":[2.1868846E4,4.3356836E2,2.5844932E3,5.219629E1,4.804101E2,2.4025E2,1.9750964E3,4.0993176E1,2.6526367E1,3.0065448E2,1.2490347E2,1.9205176E2,1.7050714E2,9.701821E2,9.5157275E2,0E0,0E0,8.974609E0,0E0,2.0978142E1,1.7214355E0,3.9482513E1,2.6854393E1,2.1337805E2,4.421875E1,2.9263306E-1,1.3185986E2,1.2704363E3,6.103218E2,1.0526665E3,7.041343E2,7.736328E0,0E0,8.657004E0,4.09906E0,6.265564E-1,3.6059494E0,3.297516E1,7.6425686E0,0E0,7.9245224E0,3.2124695E1,2.5475989E2,1.02421875E1,1.1976404E2,1.7318726E-2,1.2656586E0,1.0378044E1,8.196406E1,9.011028E2,3.6370105E2,1.9830876E2,1.9984619E2,3.924873E2,9.6768646E2,3.1943625E2,6.098921E2,0E0,0E0,0E0,0E0,0E0,0E0,0E0,0E0,0E0,0E0,0E0,0E0,0E0,0E0,0E0,0E0,0E0,0E0,0E0,0E0,0E0,0E0,0E0,0E0,0E0,0E0,0E0,0E0,0E0,0E0,0E0,0E0,0E0,0E0,0E0,0E0,0E0,0E0,0E0,0E0,0E0,0E0,0E0,0E0,0E0,0E0,0E0,0E0],"parents":[2147483647,0,0,1,1,2,2,3,3,4,4,5,5,6,6,7,7,8,8,9,9,10,10,11,11,12,12,13,13,14,14,17,17,19,19,20,20,21,21,22,22,23,23,24,24,25,25,26,26,27,27,28,28,29,29,30,30,31,31,33,33,34,34,35,35,36,36,37,37,38,38,40,40,41,41,42,42,43,43,44,44,45,45,46,46,47,47,48,48,49,49,50,50,51,51,52,52,53,53,54,54,55,55,56,56],"right_children":[2,4,6,8,10,12,14,16,18,20,22,24,26,28,30,-1,-1,32,-1,34,36,38,40,42,44,46,48,50,52,54,56,58,-1,60,62,64,66,68,70,-1,72,74,76,78,80,82,84,86,88,90,92,94,96,98,100,102,104,-1,-1,-1,-1,-1,-1,-1,-1,-1,-1,-1,-1,-1,-1,-1,-1,-1,-1,-1,-1,-1,-1,-1,-1,-1,-1,-1,-1,-1,-1,-1,-1,-1,-1,-1,-1,-1,-1,-1,-1,-1,-1,-1,-1,-1,-1,-1,-1],"split_conditions":[-2.715704E0,-1.6847309E0,-1.4795898E-2,2.9217982E-1,2.0067503E0,2.1752741E0,-4.2580485E-1,-1.7434287E0,2.1752741E0,-6.584247E-1,6.838011E-1,-8.9151603E-1,-1.4502754E0,6.6383284E-1,1.1483712E0,2.9852733E-1,-4.6519047E-1,3.1449917E-1,-5.922332E-1,3.0693537E-1,3.099915E0,9.0066093E-1,-3.359781E0,-4.7351637E-1,1.6486235E0,-1.5006764E0,4.0753655E-2,1.2400697E0,-1.9577584E0,1.5489025E0,-5.915509E-1,5.3393257E-1,-2.8501448E-1,-6.9994366E-1,3.0467895E-1,6.793817E-1,-1.6071793E0,5.747023E-1,7.9206485E-1,2.4133797E-1,-2.7656883E-1,-5.5991936E-1,2.8402077E-2,1.6797533E0,1.0507613E0,-2.8035414E-1,4.519971E-1,3.5297123E-1,-9.081669E-2,5.5188715E-1,3.0693537E-1,-4.5128527E-1,3.7277052E0,-4.338523E-1,2.1210632E0,1.7581241E-1,-1.0599053E-1,3.2342932E-1,2.682414E-1,2.3117685E-1,-4.41017E-1,3.364815E-1,-1.406774E-1,-4.1461375E-1,-3.3997232E-1,-3.398119E-1,1.9481565E-1,2.9934078E-1,-6.2464356E-1,9.9875286E-2,-7.265771E-1,-4.0909082E-1,-9.688931E-1,-2.0155895E-1,-3.2869282E-1,1.0176724E-1,-3.600681E-1,-3.2404363E-1,-2.4315892E-1,-3.248872E-1,4.3095872E-1,-4.1689447E-1,-3.377577E-1,-2.658851E-1,6.1671566E-2,-3.6976898E-1,-5.61062E-2,-3.6202288E-1,3.1223738E-1,2.7240735E-1,-1.8686627E-1,-3.1771374E-1,1.9871518E-1,-2.6548377E-1,1.3261488E-1,-2.91612E-1,2.4455903E-1,-2.8059915E-2,-2.9483488E-1,1.3648772E-1,-2.2320513E-1,4.9833268E-2,-4.0340117E-1,-3.1865475E-1,2.9856938E-1],"split_indices":[13,9,3,10,3,6,13,17,6,6,12,13,0,29,6,0,0,11,0,20,20,29,6,3,21,0,24,2,2,3,8,6,0,25,26,9,0,7,15,0,20,2,26,6,20,25,26,26,26,24,20,23,4,19,28,13,17,0,0,0,0,0,0,0,0,0,0,0,0,0,0,0,0,0,0,0,0,0,0,0,0,0,0,0,0,0,0,0,0,0,0,0,0,0,0,0,0,0,0,0,0,0,0,0,0],"split_type":[0,0,0,0,0,0,0,0,0,0,0,0,0,0,0,0,0,0,0,0,0,0,0,0,0,0,0,0,0,0,0,0,0,0,0,0,0,0,0,0,0,0,0,0,0,0,0,0,0,0,0,0,0,0,0,0,0,0,0,0,0,0,0,0,0,0,0,0,0,0,0,0,0,0,0,0,0,0,0,0,0,0,0,0,0,0,0,0,0,0,0,0,0,0,0,0,0,0,0,0,0,0,0,0,0],"sum_hessian":[3.9564824E4,1.364071E4,2.5924113E4,1.2780449E4,8.6026025E2,9.041852E3,1.6882262E4,2.3580366E1,1.2756869E4,2.9332974E2,5.6693054E2,8.72371E3,3.1814078E2,6.1066025E3,1.0775659E4,1.0707537E1,1.2872829E1,1.275489E4,1.979763E0,7.992214E1,2.1340761E2,5.509253E2,1.6005217E1,1.3440804E3,7.37963E3,9.7038284E1,2.211025E2,4.058124E3,2.0484783E3,9.176743E3,1.5989164E3,1.2753418E4,1.4719582E0,5.94289E0,7.3979256E1,2.1073703E2,2.6705694E0,5.466948E2,4.2304773E0,2.7603781E0,1.3244838E1,8.426629E2,5.0141757E2,7.289184E3,9.044591E1,9.30211E1,4.0171766E0,5.3338467E1,1.6776402E2,3.28227E3,7.7585394E2,8.4845013E2,1.2000282E3,6.483026E3,2.6937168E3,5.796089E2,1.01930756E3,1.2486064E4,2.673534E2,1.8447018E0,4.0981884E0,7.2834E1,1.1452513E0,1.6120665E2,4.9530388E1,1.4249551E0,1.2456144E0,5.440941E2,2.6007297E0,1.0356631E0,3.194814E0,7.312356E0,5.932482E0,2.698906E2,5.727723E2,3.4681866E2,1.545989E2,7.129888E3,1.5929593E2,6.4983E1,2.5462906E1,3.3222176E1,5.979893E1,3.0133915E0,1.0037851E0,4.051069E1,1.2827776E1,1.7332512E1,1.5043152E2,2.8382913E3,4.4397876E2,6.238473E2,1.5200662E2,1.3265167E2,7.1579846E2,1.1345474E3,6.548081E1,5.4181805E2,5.941208E3,1.3016676E3,1.3920492E3,2.3473491E2,3.4487396E2,1.7273438E2,8.465732E2],"tree_param":{"num_deleted":"0","num_feature":"30","num_nodes":"105","size_leaf_vector":"1"}},{"base_weights":[-1.2826632E-3,1.0333439E0,-4.5643964E-1,1.039381E0,-3.2314214E-1,-9.2431855E-1,-2.4171263E-1,1.0529745E0,6.517455E-1,-5.3963196E-1,-1.0064113E0,1.1147653E-1,-4.9347338E-1,1.05412E0,-4.5808166E-1,-4.28799E-1,9.285682E-1,-1.0692321E0,-2.3086701E-1,-1.0375792E0,-3.157665E-1,2.4068022E-1,-7.0005697E-1,-1.9088694E-1,-7.308398E-1,1.0544468E0,1.5130502E-1,2.5867093E-1,-6.338531E-1,-2.121402E0,9.853454E-1,-4.9996778E-1,-3.2678086E-1,-1.0283931E0,1.4752959E-1,-1.0464643E0,-3.21286E-1,3.9664617E-1,-1.1092632E0,3.8031647E-1,-6.743344E-1,7.669899E-1,-9.871402E-1,8.337124E-2,-8.731939E-1,-3.1814635E-1,-9.2310876E-1,-9.690947E-3,3.1639165E-1,2.2579056E-1,-2.4822836E-1,-9.733103E-2,-7.4013126E-1,-7.460859E-1,3.0276498E-1,-3.3467084E-1,4.7258916E-1,-3.166036E-1,9.700807E-2,2.0331599E-1,-3.072194E-1,-2.5854617E-1,-3.1728253E-1,-3.1445384E-1,3.693223E-1,-3.89325E-1,2.3951046E-1,-6.165628E-2,-3.348146E-1,-4.2600384E-1,1.3490996E-1,-2.5491002E-1,3.0296278E-1,-3.173672E-1,5.166446E-1,-9.316923E-2,-3.2334542E-1,-3.4412447E-1,8.241547E-2,-3.2208875E-1,1.9187078E-1,-1.891944E-3,-3.201533E-1,-2.971091E-1,-5.3000417E-2],"categories":[],"categories_nodes":[],"categories_segments":[],"categories_sizes":[],"default_left":[0,0,0,0,0,0,0,0,0,0,0,0,0,0,0,0,0,0,0,0,0,0,0,0,0,0,0,0,0,0,0,0,0,0,0,0,0,0,0,0,0,0,0,0,0,0,0,0,0,0,0,0,0,0,0,0,0,0,0,0,0,0,0,0,0,0,0,0,0,0,0,0,0,0,0,0,0,0,0,0,0,0,0,0,0],"id":7,"left_children":[1,3,5,7,-1,9,11,13,15,17,19,21,23,25,27,-1,29,31,33,35,37,39,41,43,45,47,49,-1,-1,51,53,55,-1,57,59,61,63,65,67,69,71,73,75,77,79,81,83,-1,-1,-1,-1,-1,-1,-1,-1,-1,-1,-1,-1,-1,-1,-1,-1,-1,-1,-1,-1,-1,-1,-1,-1,-1,-1,-1,-1,-1,-1,-1,-1,-1,-1,-1,-1,-1,-1],"loss_changes":[1.5194871E4,1.2672461E2,2.2510732E3,5.1112305E1,0E0,2.220542E2,1.3659263E3,1.6919922E1,1.9470479E2,2.028165E2,1.2469141E2,6.7054645E2,6.4399976E2,2.640625E0,1.9060469E1,0E0,5.34991E1,4.6690674E0,2.3727158E2,3.502832E1,1.4301944E2,7.05049E2,3.7069025E2,7.380842E2,3.9846606E2,2.0117188E0,3.331088E0,0E0,0E0,2.7669773E0,2.6723663E1,2.39735E1,0E0,9.557373E0,3.322547E2,1.0381348E1,7.974278E1,9.1999664E1,5.039673E-1,5.985263E2,2.1667209E2,2.5337181E2,4.4760376E1,6.6286176E2,3.4357068E2,3.734165E2,1.7190308E2,0E0,0E0,0E0,0E0,0E0,0E0,0E0,0E0,0E0,0E0,0E0,0E0,0E0,0E0,0E0,0E0,0E0,0E0,0E0,0E0,0E0,0E0,0E0,0E0,0E0,0E0,0E0,0E0,0E0,0E0,0E0,0E0,0E0,0E0,0E0,0E0,0E0,0E0],"parents":[2147483647,0,0,1,1,2,2,3,3,5,5,6,6,7,7,8,8,9,9,10,10,11,11,12,12,13,13,14,14,16,16,17,17,18,18,19,19,20,20,21,21,22,22,23,23,24,24,25,25,26,26,29,29,30,30,31,31,33,33,34,34,35,35,36,36,37,37,38,38,39,39,40,40,41,41,42,42,43,43,44,44,45,45,46,46],"right_children":[2,4,6,8,-1,10,12,14,16,18,20,22,24,26,28,-1,30,32,34,36,38,40,42,44,46,48,50,-1,-1,52,54,56,-1,58,60,62,64,66,68,70,72,74,76,78,80,82,84,-1,-1,-1,-1,-1,-1,-1,-1,-1,-1,-1,-1,-1,-1,-1,-1,-1,-1,-1,-1,-1,-1,-1,-1,-1,-1,-1,-1,-1,-1,-1,-1,-1,-1,-1,-1,-1,-1],"split_conditions":[-3.4288688E0,5.7232165E-1,-1.4795898E-2,5.487594E-1,-3.2314214E-1,-8.9151603E-1,-3.5942802E-1,2.228967E0,2.23683E0,3.2532286E-2,1.922718E0,1.2400697E0,-1.2275189E-1,3.0154705E-1,-1.5182065E0,-4.28799E-1,9.739666E-1,-1.59527E0,-7.1280205E-1,1.6486235E0,-3.185317E-1,1.8882095E0,-1.3280454E0,1.0933836E0,-6.473596E-1,-4.4626758E-1,-1.8847152E0,2.5867093E-1,-6.338531E-1,-1.3521421E0,-7.51433E0,1.922718E0,-3.2678086E-1,3.0702438E0,8.1497693E-1,-1.5490499E0,1.0507613E0,-1.5006764E0,-3.0532607E-1,-9.5399237E-1,5.4348713E-1,2.7088133E-1,-5.191162E-1,2.8116518E-1,1.9095948E-2,3.4092042E-1,4.947398E-1,-9.690947E-3,3.1639165E-1,2.2579056E-1,-2.4822836E-1,-9.733103E-2,-7.4013126E-1,-7.460859E-1,3.0276498E-1,-3.3467084E-1,4.7258916E-1,-3.166036E-1,9.700807E-2,2.0331599E-1,-3.072194E-1,-2.5854617E-1,-3.1728253E-1,-3.1445384E-1,3.693223E-1,-3.89325E-1,2.3951046E-1,-6.165628E-2,-3.348146E-1,-4.2600384E-1,1.3490996E-1,-2.5491002E-1,3.0296278E-1,-3.173672E-1,5.166446E-1,-9.316923E-2,-3.2334542E-1,-3.4412447E-1,8.241547E-2,-3.2208875E-1,1.9187078E-1,-1.891944E-3,-3.201533E-1,-2.971091E-1,-5.3000417E-2],"split_indices":[13,9,3,6,0,13,13,15,3,17,6,2,7,11,5,0,10,9,3,21,25,0,12,0,18,3,9,0,0,14,13,6,0,6,4,12,20,0,25,23,24,20,19,29,26,14,22,0,0,0,0,0,0,0,0,0,0,0,0,0,0,0,0,0,0,0,0,0,0,0,0,0,0,0,0,0,0,0,0,0,0,0,0,0,0],"split_type":[0,0,0,0,0,0,0,0,0,0,0,0,0,0,0,0,0,0,0,0,0,0,0,0,0,0,0,0,0,0,0,0,0,0,0,0,0,0,0,0,0,0,0,0,0,0,0,0,0,0,0,0,0,0,0,0,0,0,0,0,0,0,0,0,0,0,0,0,0,0,0,0,0,0,0,0,0,0,0,0,0,0,0,0,0],"sum_hessian":[3.2264523E4,9.857032E3,2.240749E4,9.829422E3,2.7610098E1,7.0476733E3,1.5359817E4,9.494749E3,3.3467316E2,1.2408104E3,5.806863E3,6.392495E3,8.967322E3,9.487858E3,6.890243E0,3.8802612E1,2.9587054E2,4.5607605E2,7.847343E2,5.5556426E3,2.5122041E2,5.5151377E3,8.773578E2,3.9428801E3,5.0244424E3,9.484257E3,3.6017764E0,4.098793E0,2.79145E0,4.742611E0,2.9112793E2,1.638983E1,4.3968622E2,2.5196451E2,5.3276984E2,5.487117E3,6.8525314E1,1.3263707E2,1.1858334E2,4.785438E3,7.296997E2,1.4331592E2,7.340419E2,2.8130374E3,1.1298428E3,1.5977103E3,3.426732E3,1.6450696E0,9.482612E3,2.3741295E0,1.2276467E0,1.0779412E0,3.6646695E0,1.2832503E0,2.8984467E2,1.2996904E1,3.3929262E0,2.4725389E2,4.7106194E0,3.6707578E2,1.6569406E2,3.1678033E2,5.170337E3,4.6892612E1,2.1632702E1,2.4992485E1,1.07644585E2,1.116886E0,1.1746645E2,1.7686092E2,4.608577E3,6.6133484E2,6.836488E1,4.9203163E1,9.411276E1,8.727561E1,6.4676624E2,3.779087E2,2.4351287E3,9.979134E2,1.319294E2,1.1287803E3,4.6893015E2,3.1432004E3,2.835314E2],"tree_param":{"num_deleted":"0","num_feature":"30","num_nodes":"85","size_leaf_vector":"1"}},{"base_weights":[-3.6728904E-3,1.0139802E0,-3.9348826E-1,1.019984E0,-3.1103122E-1,-8.8633156E-1,-2.0430966E-1,1.0345099E0,6.17214E-1,-4.703491E-1,-9.8238057E-1,-1.5237887E-2,-5.482988E-1,1.0357808E0,-3.9024472E-1,-3.9459106E-1,8.835628E-1,-1.0508494E0,-1.7935047E-1,-1.0204682E0,-3.2892376E-1,1.1366636E-1,-7.520017E-1,1.5268465E-2,-7.157176E-1,1.0361533E0,1.2337233E-1,2.4252518E-1,-4.872949E-1,-1.6054556E0,9.441132E-1,-1.1163585E0,-6.3893E-1,-1.0543221E0,1.3825993E-1,-7.112251E-1,-1.0415528E0,3.3626565E-1,-1.0600767E0,3.6972296E-1,-3.5188165E-1,8.095351E-1,-9.435272E-1,9.835065E-1,-3.0958545E-1,2.2433934E-1,-8.2444257E-1,-7.839561E-3,3.109212E-1,2.0914853E-1,-2.218699E-1,-9.300441E-2,-5.840227E-1,-3.5301733E-1,2.9595014E-1,-3.1713814E-1,-3.6687666E-1,2.5208116E-1,-3.3908144E-1,-3.178049E-1,-1.3461874E-1,-3.4449208E-1,1.2889712E-1,-3.131855E-1,1.2244256E-1,-3.1404608E-1,-2.8453287E-1,-3.6072594E-1,2.3000607E-1,-1.0010761E-1,-3.240265E-1,1.374983E-1,-3.622505E-1,5.920598E-2,-2.1928394E-1,4.638132E-1,-3.3256325E-1,-3.463238E-1,-1.580686E-1,3.3210698E-1,-5.1909894E-1,2.2094937E-1,-2.527847E-1,2.4709146E-1,-3.9117625E-1,-2.883758E-1,5.7283755E-2],"categories":[],"categories_nodes":[],"categories_segments":[],"categories_sizes":[],"default_left":[0,0,0,0,0,0,0,0,0,0,0,0,0,0,0,0,0,0,0,0,0,0,0,0,0,0,0,0,0,0,0,0,0,0,0,0,0,0,0,0,0,0,0,0,0,0,0,0,0,0,0,0,0,0,0,0,0,0,0,0,0,0,0,0,0,0,0,0,0,0,0,0,0,0,0,0,0,0,0,0,0,0,0,0,0,0,0],"id":8,"left_children":[1,3,5,7,-1,9,11,13,15,17,19,21,23,25,27,-1,29,31,33,35,37,39,41,43,45,47,49,-1,-1,51,53,55,57,59,61,63,65,67,69,71,73,75,77,79,81,83,85,-1,-1,-1,-1,-1,-1,-1,-1,-1,-1,-1,-1,-1,-1,-1,-1,-1,-1,-1,-1,-1,-1,-1,-1,-1,-1,-1,-1,-1,-1,-1,-1,-1,-1,-1,-1,-1,-1,-1,-1],"loss_changes":[1.0629255E4,9.242871E1,1.8061023E3,4.2655273E1,0E0,2.1423291E2,9.105909E2,1.3333984E1,1.3502396E2,1.7040804E2,1.0829248E2,8.5824634E2,4.685581E2,2.2963867E0,1.1801591E1,0E0,3.6052994E1,8.380676E0,1.8742035E2,2.6146973E1,1.1798633E2,9.169829E2,4.032124E2,3.5835342E2,3.9149927E2,1.9262695E0,2.5191584E0,0E0,0E0,1.9663849E0,2.1329025E1,5.340271E-1,3.6256935E1,7.142639E-2,1.8618369E2,9.963194E1,8.9941406E-1,8.5298E1,1.3178711E0,6.9407086E2,5.68459E2,2.1015921E2,1.0474609E2,9.7856415E1,4.7631744E2,3.6531284E2,4.769309E2,0E0,0E0,0E0,0E0,0E0,0E0,0E0,0E0,0E0,0E0,0E0,0E0,0E0,0E0,0E0,0E0,0E0,0E0,0E0,0E0,0E0,0E0,0E0,0E0,0E0,0E0,0E0,0E0,0E0,0E0,0E0,0E0,0E0,0E0,0E0,0E0,0E0,0E0,0E0,0E0],"parents":[2147483647,0,0,1,1,2,2,3,3,5,5,6,6,7,7,8,8,9,9,10,10,11,11,12,12,13,13,14,14,16,16,17,17,18,18,19,19,20,20,21,21,22,22,23,23,24,24,25,25,26,26,29,29,30,30,31,31,32,32,33,33,34,34,35,35,36,36,37,37,38,38,39,39,40,40,41,41,42,42,43,43,44,44,45,45,46,46],"right_children":[2,4,6,8,-1,10,12,14,16,18,20,22,24,26,28,-1,30,32,34,36,38,40,42,44,46,48,50,-1,-1,52,54,56,58,60,62,64,66,68,70,72,74,76,78,80,82,84,86,-1,-1,-1,-1,-1,-1,-1,-1,-1,-1,-1,-1,-1,-1,-1,-1,-1,-1,-1,-1,-1,-1,-1,-1,-1,-1,-1,-1,-1,-1,-1,-1,-1,-1,-1,-1,-1,-1,-1,-1],"split_conditions":[-3.4288688E0,5.7232165E-1,-3.888298E-2,5.487594E-1,-3.1103122E-1,-9.1718984E-1,1.5157995E-1,2.228967E0,2.23683E0,-7.84928E-1,1.7811701E0,1.267465E0,-4.6187666E-1,3.0154705E-1,-1.5182065E0,-3.9459106E-1,9.739666E-1,5.451371E0,-3.4476664E-2,-1.5490499E0,-3.3455107E-1,6.5717465E-1,-1.6232322E0,6.881346E-1,-1.6503667E0,-4.4626758E-1,-1.8847152E0,2.4252518E-1,-4.872949E-1,1.568406E0,-7.4326224E0,-4.7351637E-1,5.5849433E0,-4.5709465E-2,-4.351007E-1,-2.186218E-1,-1.1302954E-1,-3.3745062E-1,-3.0532607E-1,6.8043816E-1,-1.2684768E0,-4.171896E-2,3.5634017E-1,4.574943E-1,-4.9688628E-1,-1.0679709E0,4.5057276E-1,-7.839561E-3,3.109212E-1,2.0914853E-1,-2.218699E-1,-9.300441E-2,-5.840227E-1,-3.5301733E-1,2.9595014E-1,-3.1713814E-1,-3.6687666E-1,2.5208116E-1,-3.3908144E-1,-3.178049E-1,-1.3461874E-1,-3.4449208E-1,1.2889712E-1,-3.131855E-1,1.2244256E-1,-3.1404608E-1,-2.8453287E-1,-3.6072594E-1,2.3000607E-1,-1.0010761E-1,-3.240265E-1,1.374983E-1,-3.622505E-1,5.920598E-2,-2.1928394E-1,4.638132E-1,-3.3256325E-1,-3.463238E-1,-1.580686E-1,3.3210698E-1,-5.1909894E-1,2.2094937E-1,-2.527847E-1,2.4709146E-1,-3.9117625E-1,-2.883758E-1,5.7283755E-2],"split_indices":[13,9,3,6,0,13,13,15,3,0,6,2,7,11,5,0,10,28,17,12,25,29,12,28,18,3,9,0,0,1,13,3,28,17,24,3,3,16,25,24,13,7,16,18,25,11,22,0,0,0,0,0,0,0,0,0,0,0,0,0,0,0,0,0,0,0,0,0,0,0,0,0,0,0,0,0,0,0,0,0,0,0,0,0,0,0,0],"split_type":[0,0,0,0,0,0,0,0,0,0,0,0,0,0,0,0,0,0,0,0,0,0,0,0,0,0,0,0,0,0,0,0,0,0,0,0,0,0,0,0,0,0,0,0,0,0,0,0,0,0,0,0,0,0,0,0,0,0,0,0,0,0,0,0,0,0,0,0,0,0,0,0,0,0,0,0,0,0,0,0,0,0,0,0,0,0,0],"sum_hessian":[2.67924E4,7.420035E3,1.9372363E4,7.3988765E3,2.1158806E1,5.3724663E3,1.3999897E4,7.139811E3,2.5906543E2,1.00889624E3,4.3635703E3,9.0349375E3,4.9649604E3,7.1337207E3,6.090467E0,3.090356E1,2.2816187E2,3.3600452E2,6.728917E2,4.1227104E3,2.4085999E2,7.6902896E3,1.344648E3,1.1373405E3,3.8276199E3,7.1306743E3,3.0464122E0,3.2645283E0,2.825939E0,4.812733E0,2.2334914E2,2.8842502E2,4.7579487E1,1.7858786E2,4.9430383E2,2.6536517E2,3.8573452E3,1.2640194E2,1.14458046E2,4.961574E3,2.7287153E3,1.4655289E2,1.198095E3,2.8521625E2,8.5212415E2,3.966909E2,3.430929E3,1.6574082E0,7.1290166E3,1.9451445E0,1.1012676E0,1.4014686E0,3.411265E0,3.8520353E0,2.194971E2,1.9240207E2,9.602296E1,1.1686553E1,3.5892937E1,1.7637436E2,2.2135017E0,9.073833E1,4.0356552E2,2.0461246E2,6.075272E1,3.641111E3,2.1623396E2,2.7237772E1,9.916417E1,3.5426028E0,1.1091544E2,4.698342E3,2.632322E2,1.1144478E3,1.6142675E3,1.060323E2,4.0520584E1,7.9428375E2,4.0381122E2,2.7336642E2,1.1849838E1,2.875059E2,5.646183E2,2.852807E2,1.11410194E2,3.0235935E3,4.0733557E2],"tree_param":{"num_deleted":"0","num_feature":"30","num_nodes":"87","size_leaf_vector":"1"}},{"base_weights":[-5.4587666E-3,9.9809545E-1,-3.3487198E-1,1.004095E0,-3.0056065E-1,-8.4201914E-1,-1.6839872E-1,1.0077128E0,-7.790329E-1,-4.2366657E-1,-9.620563E-1,-5.788884E-2,-7.5239843E-1,1.019924E0,6.612911E-1,7.486844E-1,-2.5272603E0,-9.4833755E-1,-1.1023024E-1,-1.0031056E0,-3.1873694E-1,5.585669E-2,-6.985461E-1,9.5441335E-1,-9.005399E-1,1.0213283E0,-3.409506E-1,-3.674849E-1,9.179789E-1,2.615457E-1,3.1979096E-3,-1.0222431E0,-2.841204E-1,-1.0111463E0,-2.4237852E-1,2.8689528E-1,-9.241894E-1,-6.568377E-1,-1.0288497E0,2.8342712E-1,-9.796317E-1,1.2562759E-1,-1.1213495E0,1.4602098E-1,-1.0822272E0,-8.629075E-1,1.0007286E0,-1.117874E0,-7.7960044E-2,-6.344312E-3,3.0649722E-1,2.2670259E-1,-4.0079442E-1,2.8932586E-1,-4.996408E-1,-3.158751E-1,-1.7948785E-1,-3.1327963E-1,4.284808E-1,2.0216143E-1,-3.359806E-1,-3.397835E-1,3.1067377E-1,-3.0205768E-1,1.0704803E-1,-3.0974373E-1,-2.508524E-1,-3.4457505E-1,2.0566645E-1,-3.1588686E-1,-1.9766724E-2,-1.2471337E-1,7.4142665E-2,-3.6941248E-1,4.443511E-1,-1.9186701E-1,1.8028645E-1,-3.20583E-1,-6.964849E-1,-3.4215632E-1,3.0689707E-1,-3.4057945E-1,-1.995094E-1,3.2568997E-1,-1.780757E-1],"categories":[],"categories_nodes":[],"categories_segments":[],"categories_sizes":[],"default_left":[0,0,0,0,0,0,0,0,0,0,0,0,0,0,0,0,0,0,0,0,0,0,0,0,0,0,0,0,0,0,0,0,0,0,0,0,0,0,0,0,0,0,0,0,0,0,0,0,0,0,0,0,0,0,0,0,0,0,0,0,0,0,0,0,0,0,0,0,0,0,0,0,0,0,0,0,0,0,0,0,0,0,0,0,0],"id":9,"left_children":[1,3,5,7,-1,9,11,13,15,17,19,21,23,25,27,29,31,33,35,37,39,41,43,45,47,49,51,-1,53,-1,-1,-1,-1,55,57,59,61,63,65,67,69,71,73,75,77,-1,79,81,83,-1,-1,-1,-1,-1,-1,-1,-1,-1,-1,-1,-1,-1,-1,-1,-1,-1,-1,-1,-1,-1,-1,-1,-1,-1,-1,-1,-1,-1,-1,-1,-1,-1,-1,-1,-1],"loss_changes":[7.454024E3,6.786621E1,1.4330636E3,3.6628418E1,0E0,2.1025684E2,8.248633E2,2.2783203E1,3.3445442E1,1.5400073E2,8.5741455E1,7.833413E2,5.150907E2,1.0581055E1,9.392021E1,6.337631E-1,4.7539597E0,1.528833E1,1.9025735E2,2.6628662E1,7.865335E1,7.499707E2,5.253582E2,3.1781677E1,3.3455017E2,1.855957E0,7.8503766E0,0E0,2.1914932E1,0E0,0E0,0E0,0E0,4.912384E0,4.159693E1,2.1623004E2,7.999371E1,7.654669E1,1.1291504E0,6.0574818E1,6.2363434E0,5.6708936E2,1.4811719E2,1.8164227E2,1.6330322E1,0E0,8.87468E0,1.0904907E1,2.3600098E2,0E0,0E0,0E0,0E0,0E0,0E0,0E0,0E0,0E0,0E0,0E0,0E0,0E0,0E0,0E0,0E0,0E0,0E0,0E0,0E0,0E0,0E0,0E0,0E0,0E0,0E0,0E0,0E0,0E0,0E0,0E0,0E0,0E0,0E0,0E0,0E0],"parents":[2147483647,0,0,1,1,2,2,3,3,5,5,6,6,7,7,8,8,9,9,10,10,11,11,12,12,13,13,14,14,15,15,16,16,17,17,18,18,19,19,20,20,21,21,22,22,23,23,24,24,25,25,26,26,28,28,33,33,34,34,35,35,36,36,37,37,38,38,39,39,40,40,41,41,42,42,43,43,44,44,46,46,47,47,48,48],"right_children":[2,4,6,8,-1,10,12,14,16,18,20,22,24,26,28,30,32,34,36,38,40,42,44,46,48,50,52,-1,54,-1,-1,-1,-1,56,58,60,62,64,66,68,70,72,74,76,78,-1,80,82,84,-1,-1,-1,-1,-1,-1,-1,-1,-1,-1,-1,-1,-1,-1,-1,-1,-1,-1,-1,-1,-1,-1,-1,-1,-1,-1,-1,-1,-1,-1,-1,-1,-1,-1,-1,-1],"split_conditions":[-3.4288688E0,5.7232165E-1,-3.888298E-2,1.9033737E0,-3.0056065E-1,-8.617909E-1,2.7100998E-1,5.487594E-1,-9.2344135E-1,-6.889253E-1,1.7811701E0,1.7255644E0,-1.9025129E0,2.228967E0,2.23683E0,-1.4705524E0,-1.2373194E0,1.7811701E0,7.511554E-1,-1.5490499E0,-3.843196E-1,6.934998E-1,-1.2233663E0,1.1321341E0,2.816386E0,-4.4626758E-1,-1.5182065E0,-3.674849E-1,8.87055E-1,2.615457E-1,3.1979096E-3,-1.0222431E0,-2.841204E-1,1.2170197E0,-6.057922E-1,2.6377887E-1,3.0702438E0,-1.9007713E-1,-6.424465E-2,-1.654165E-1,1.2758914E0,2.6184073E-1,1.3522646E0,7.065878E-1,1.759202E0,-8.629075E-1,2.0645556E-1,2.6341321E0,-1.5847273E0,-6.344312E-3,3.0649722E-1,2.2670259E-1,-4.0079442E-1,2.8932586E-1,-4.996408E-1,-3.158751E-1,-1.7948785E-1,-3.1327963E-1,4.284808E-1,2.0216143E-1,-3.359806E-1,-3.397835E-1,3.1067377E-1,-3.0205768E-1,1.0704803E-1,-3.0974373E-1,-2.508524E-1,-3.4457505E-1,2.0566645E-1,-3.1588686E-1,-1.9766724E-2,-1.2471337E-1,7.4142665E-2,-3.6941248E-1,4.443511E-1,-1.9186701E-1,1.8028645E-1,-3.20583E-1,-6.964849E-1,-3.4215632E-1,3.0689707E-1,-3.4057945E-1,-1.995094E-1,3.2568997E-1,-1.780757E-1],"split_indices":[13,9,3,0,0,13,7,6,14,3,6,0,16,15,3,5,8,6,1,12,25,24,13,28,3,3,5,0,29,0,0,0,0,10,0,7,6,3,3,14,14,29,0,4,16,0,20,3,14,0,0,0,0,0,0,0,0,0,0,0,0,0,0,0,0,0,0,0,0,0,0,0,0,0,0,0,0,0,0,0,0,0,0,0,0],"split_type":[0,0,0,0,0,0,0,0,0,0,0,0,0,0,0,0,0,0,0,0,0,0,0,0,0,0,0,0,0,0,0,0,0,0,0,0,0,0,0,0,0,0,0,0,0,0,0,0,0,0,0,0,0,0,0,0,0,0,0,0,0,0,0,0,0,0,0,0,0,0,0,0,0,0,0,0,0,0,0,0,0,0,0,0,0],"sum_hessian":[2.2546037E4,5.571249E3,1.6974787E4,5.555083E3,1.616625E1,4.194012E3,1.2780774E4,5.5442686E3,1.0814194E1,9.3608954E2,3.2579229E3,1.0748031E4,2.0327439E3,5.3536113E3,1.9065746E2,6.0761747E0,4.7380185E0,3.493223E2,5.867672E2,3.0619827E3,1.9594016E2,9.128266E3,1.6197655E3,1.6190562E2,1.8708383E3,5.3483423E3,5.269205E0,2.2385805E1,1.6827165E2,5.051996E0,1.0241787E0,2.300307E0,2.4377115E0,3.203855E2,2.8936794E1,3.947962E2,1.9197104E2,2.1373099E2,2.8482517E3,1.0282442E2,9.311574E1,8.618363E3,5.0990176E2,5.061771E2,1.1135884E3,1.204166E0,1.6070146E2,1.4795632E3,3.9127505E2,1.6674464E0,5.346675E3,2.6210692E0,2.648136E0,1.659158E2,2.355845E0,2.895407E2,3.0844797E1,1.9805414E1,9.13138E0,3.1003583E2,8.476039E1,1.7389888E2,1.8072151E1,1.5887701E2,5.485397E1,2.7913147E3,5.6936966E1,2.2136875E1,8.0687546E1,8.605758E1,7.0581546E0,1.5794786E3,7.0388853E3,4.8972476E2,2.0177002E1,1.8548193E2,3.2069516E2,1.1033281E3,1.0260244E1,1.1366751E0,1.5956477E2,1.4233932E3,5.6169968E1,1.1980656E2,2.7146848E2],"tree_param":{"num_deleted":"0","num_feature":"30","num_nodes":"85","size_leaf_vector":"1"}},{"base_weights":[-7.4759247E-3,9.839045E-1,-2.7901873E-1,9.8992497E-1,-2.9080164E-1,-9.2132455E-1,-1.612322E-1,1.0071254E0,5.506693E-1,-4.6533903E-1,-9.791888E-1,-6.620469E-2,-7.3034143E-1,1.0091232E0,-1.4751874E-1,-3.5008398E-1,7.948965E-1,-9.873646E-1,7.694253E-2,-3.0753878E-1,-3.4682167E-1,8.2835525E-2,-4.3379858E-1,-1.0390736E0,-8.574339E-2,1.0098046E0,-1.1047132E-1,2.3977335E-1,-1.0721936E0,-1.2079252E0,8.6688E-1,-1.0508516E0,1.2886514E-1,-1.0025871E0,7.8634465E-1,-3.2849547E-1,1.3180593E-1,1.6358253E-1,-7.964466E-1,-1.2961955E-1,-1.0117853E0,7.316512E-1,-1.0954884E0,3.7607616E-1,-1.1092962E0,-5.135983E-3,3.0307183E-1,1.6985342E-1,-2.2908436E-1,-4.2033798E-1,-3.7860397E-2,-4.5254636E-1,7.772501E-3,-1.9949505E-1,2.7657956E-1,-3.2164994E-1,-1.509056E-1,-2.6912028E-1,2.9646936E-1,-3.323687E-1,2.3630626E-1,-3.249299E-1,3.917365E-1,-3.4788084E-1,1.7933871E-1,-1.6286484E-3,1.7121424E-1,-7.720376E-2,-3.609805E-1,1.2001962E-1,-1.6675782E-1,3.7376624E-1,-3.101648E-1,-6.532851E-1,2.5983435E-1,-3.641906E-1,-3.1802696E-1,-1.14035346E-1,2.7459478E-1,-1.8963519E-1,-3.420487E-1],"categories":[],"categories_nodes":[],"categories_segments":[],"categories_sizes":[],"default_left":[0,0,0,0,0,0,0,0,0,0,0,0,0,0,0,0,0,0,0,0,0,0,0,0,0,0,0,0,0,0,0,0,0,0,0,0,0,0,0,0,0,0,0,0,0,0,0,0,0,0,0,0,0,0,0,0,0,0,0,0,0,0,0,0,0,0,0,0,0,0,0,0,0,0,0,0,0,0,0,0,0],"id":10,"left_children":[1,3,5,7,-1,9,11,13,15,17,19,21,23,25,27,-1,29,31,33,-1,35,37,39,41,43,45,47,-1,49,51,53,55,57,59,61,-1,63,65,67,69,71,73,75,77,79,-1,-1,-1,-1,-1,-1,-1,-1,-1,-1,-1,-1,-1,-1,-1,-1,-1,-1,-1,-1,-1,-1,-1,-1,-1,-1,-1,-1,-1,-1,-1,-1,-1,-1,-1,-1],"loss_changes":[5.231841E3,5.00979E1,1.1540382E3,3.0923584E1,0E0,6.1916626E1,6.972199E2,9.394775E0,6.771155E1,7.597176E1,6.0558716E1,6.0538806E2,3.6701917E2,3.1643066E0,7.681525E0,0E0,2.1227928E1,9.82103E0,1.0220427E2,0E0,5.15387E1,5.583724E2,5.6030426E2,1.2539136E2,2.8331915E2,1.8024902E0,1.9063301E0,0E0,1.1832428E0,1.9950118E0,1.2057327E1,9.720154E-1,8.156596E0,1.0856125E1,7.9560135E1,0E0,5.3903248E1,4.9558154E2,1.4476642E2,4.7202057E2,5.6115967E1,1.7184835E1,3.7840576E0,1.688205E2,2.0236511E0,0E0,0E0,0E0,0E0,0E0,0E0,0E0,0E0,0E0,0E0,0E0,0E0,0E0,0E0,0E0,0E0,0E0,0E0,0E0,0E0,0E0,0E0,0E0,0E0,0E0,0E0,0E0,0E0,0E0,0E0,0E0,0E0,0E0,0E0,0E0,0E0],"parents":[2147483647,0,0,1,1,2,2,3,3,5,5,6,6,7,7,8,8,9,9,10,10,11,11,12,12,13,13,14,14,16,16,17,17,18,18,20,20,21,21,22,22,23,23,24,24,25,25,26,26,28,28,29,29,30,30,31,31,32,32,33,33,34,34,36,36,37,37,38,38,39,39,40,40,41,41,42,42,43,43,44,44],"right_children":[2,4,6,8,-1,10,12,14,16,18,20,22,24,26,28,-1,30,32,34,-1,36,38,40,42,44,46,48,-1,50,52,54,56,58,60,62,-1,64,66,68,70,72,74,76,78,80,-1,-1,-1,-1,-1,-1,-1,-1,-1,-1,-1,-1,-1,-1,-1,-1,-1,-1,-1,-1,-1,-1,-1,-1,-1,-1,-1,-1,-1,-1,-1,-1,-1,-1,-1,-1],"split_conditions":[-3.4288688E0,5.7232165E-1,-3.8992205E-1,5.3393257E-1,-2.9080164E-1,-1.3261049E0,2.7100998E-1,2.0392652E0,2.23683E0,-2.8090537E-1,1.7811701E0,2.1117067E-1,2.1899862E0,3.0154705E-1,-1.5405098E0,-3.5008398E-1,9.739666E-1,3.0702438E0,3.661655E-2,-3.0753878E-1,-2.055147E-1,5.763034E-1,6.7103106E-1,-2.1072974E0,8.491225E-1,-4.4626758E-1,-1.8847152E0,2.3977335E-1,-1.7037937E-1,-1.3258758E0,-7.4326224E0,-3.4231034E-1,-5.692695E-1,-4.1861707E-1,-7.774147E-1,-3.2849547E-1,-1.2427562E0,1.6303902E0,-2.7107584E-1,1.4334881E-1,-1.7206499E-1,-3.547116E-1,-8.3289653E-1,5.344446E-1,-2.5390806E0,-5.135983E-3,3.0307183E-1,1.6985342E-1,-2.2908436E-1,-4.2033798E-1,-3.7860397E-2,-4.5254636E-1,7.772501E-3,-1.9949505E-1,2.7657956E-1,-3.2164994E-1,-1.509056E-1,-2.6912028E-1,2.9646936E-1,-3.323687E-1,2.3630626E-1,-3.249299E-1,3.917365E-1,-3.4788084E-1,1.7933871E-1,-1.6286484E-3,1.7121424E-1,-7.720376E-2,-3.609805E-1,1.2001962E-1,-1.6675782E-1,3.7376624E-1,-3.101648E-1,-6.532851E-1,2.5983435E-1,-3.641906E-1,-3.1802696E-1,-1.14035346E-1,2.7459478E-1,-1.8963519E-1,-3.420487E-1],"split_indices":[13,9,3,6,0,13,7,15,3,0,6,13,3,11,5,0,10,6,23,0,16,23,0,16,2,3,9,0,21,8,13,0,0,3,1,0,0,3,15,1,27,24,13,10,11,0,0,0,0,0,0,0,0,0,0,0,0,0,0,0,0,0,0,0,0,0,0,0,0,0,0,0,0,0,0,0,0,0,0,0,0],"split_type":[0,0,0,0,0,0,0,0,0,0,0,0,0,0,0,0,0,0,0,0,0,0,0,0,0,0,0,0,0,0,0,0,0,0,0,0,0,0,0,0,0,0,0,0,0,0,0,0,0,0,0,0,0,0,0,0,0,0,0,0,0,0,0,0,0,0,0,0,0,0,0,0,0,0,0,0,0,0,0,0,0],"sum_hessian":[1.9432592E4,4.177663E3,1.5254928E4,4.165318E3,1.2345581E1,2.3628992E3,1.2892028E4,4.0071145E3,1.5820326E2,2.6710263E2,2.0957966E3,1.1048339E4,1.8436896E3,4.0003188E3,6.7955275E0,1.9224178E1,1.3897908E2,1.3567488E2,1.3142773E2,1.9532736E3,1.42523E2,7.861631E3,3.186708E3,1.2462043E3,5.9748517E2,3.9979836E3,2.3352008E0,3.424684E0,3.3708432E0,4.274261E0,1.3470482E2,1.284289E2,7.2459836E0,5.1953873E1,7.947387E1,5.5102367E1,8.742062E1,7.201143E3,6.6048773E2,2.0887034E3,1.0980048E3,3.8108337E1,1.208096E3,4.1215598E2,1.8532921E2,1.6756064E0,3.996308E3,1.2123587E0,1.1228422E0,2.1441712E0,1.2266722E0,3.2580063E0,1.0162545E0,4.2887115E0,1.304161E2,1.2269791E2,5.73099E0,3.282902E0,3.9630816E0,4.9427574E1,2.526296E0,1.704498E1,6.242889E1,2.278567E1,6.463496E1,5.0893867E3,2.111756E3,2.8476425E2,3.7572348E2,9.3136487E2,1.1573385E3,1.0105957E1,1.0878988E3,1.01225E0,3.709609E1,2.702541E2,9.378419E2,1.7168768E2,2.404683E2,1.25646105E1,1.727646E2],"tree_param":{"num_deleted":"0","num_feature":"30","num_nodes":"81","size_leaf_vector":"1"}},{"base_weights":[-8.387334E-3,9.791372E-1,-2.2900163E-1,9.845616E-1,-2.774153E-1,-8.975687E-1,-1.2891664E-1,9.893455E-1,-7.698023E-1,-4.454287E-1,-9.6633893E-1,-1.1801261E0,-8.339697E-2,9.9156034E-1,-3.589925E-1,6.558095E-1,-1.9754463E0,-1.0073195E0,1.379397E-2,-1.0156479E0,-2.9121652E-1,2.9144448E-1,-1.209669E0,1.2345623E-1,-3.01458E-1,1.0008675E0,7.535468E-1,-4.521951E-1,2.2172236E-1,2.2795545E-1,3.838319E-2,-1.7194667E-1,-6.812099E-1,-3.0967987E-1,-5.8873534E-1,-1.013189E0,5.3445596E-1,-3.054215E-1,-7.054002E-1,1.5756173E-1,-3.1191996E-1,-3.3198118E-1,1.0796297E0,-1.1367345E0,-1.4155465E0,1.9199948E-1,-1.0758038E0,-7.324958E-1,-5.4730333E-2,-1.4524725E-1,3.0046955E-1,2.467377E-1,-4.0936923E-1,-2.9233265E-1,1.4459117E-1,-3.2297677E-1,-5.6807633E-2,3.4379685E-1,-3.1605393E-1,3.7571833E-1,-2.9035118E-1,-3.6697084E-1,1.8868566E-1,3.4684104E-1,1.05049066E-1,-3.440855E-1,8.150968E-2,-5.024268E-1,-3.8749805E-1,-8.466126E-3,1.7635934E-1,-3.8742563E-1,2.9231626E-1,-3.1241608E-1,-4.9626738E-2,-2.407523E-1,4.3235324E-2],"categories":[],"categories_nodes":[],"categories_segments":[],"categories_sizes":[],"default_left":[0,0,0,0,0,0,0,0,0,0,0,0,0,0,0,0,0,0,0,0,0,0,0,0,0,0,0,0,0,0,0,0,0,0,0,0,0,0,0,0,0,0,0,0,0,0,0,0,0,0,0,0,0,0,0,0,0,0,0,0,0,0,0,0,0,0,0,0,0,0,0,0,0,0,0,0,0],"id":11,"left_children":[1,3,5,7,-1,9,11,13,15,17,19,21,23,25,27,29,31,33,35,37,39,41,43,45,47,49,51,-1,-1,-1,-1,-1,-1,-1,53,55,57,-1,59,61,-1,-1,63,65,67,69,71,73,75,-1,-1,-1,-1,-1,-1,-1,-1,-1,-1,-1,-1,-1,-1,-1,-1,-1,-1,-1,-1,-1,-1,-1,-1,-1,-1,-1,-1],"loss_changes":[3.690209E3,3.285327E1,9.2631604E2,2.6650879E1,0E0,5.561902E1,5.761969E2,9.544434E0,1.6680576E1,6.18986E1,5.176111E1,2.208081E1,5.20785E2,6.0507812E0,8.402128E0,1.6926432E-1,8.096657E-1,5.187073E-1,7.1636566E1,3.7756348E-1,3.6389423E1,1.2921494E1,5.7508545E0,4.8727948E2,5.9768823E2,3.5446777E0,1.8587303E1,0E0,0E0,0E0,0E0,0E0,0E0,0E0,3.9365118E0,2.1505013E0,8.752207E1,0E0,8.687836E0,4.5217316E1,0E0,0E0,3.2167435E-3,5.592926E0,1.8233032E0,4.8872156E2,1.4293793E2,3.5820166E2,5.3177264E2,0E0,0E0,0E0,0E0,0E0,0E0,0E0,0E0,0E0,0E0,0E0,0E0,0E0,0E0,0E0,0E0,0E0,0E0,0E0,0E0,0E0,0E0,0E0,0E0,0E0,0E0,0E0,0E0],"parents":[2147483647,0,0,1,1,2,2,3,3,5,5,6,6,7,7,8,8,9,9,10,10,11,11,12,12,13,13,14,14,15,15,16,16,17,17,18,18,19,19,20,20,21,21,22,22,23,23,24,24,25,25,26,26,34,34,35,35,36,36,38,38,39,39,42,42,43,43,44,44,45,45,46,46,47,47,48,48],"right_children":[2,4,6,8,-1,10,12,14,16,18,20,22,24,26,28,30,32,34,36,38,40,42,44,46,48,50,52,-1,-1,-1,-1,-1,-1,-1,54,56,58,-1,60,62,-1,-1,64,66,68,70,72,74,76,-1,-1,-1,-1,-1,-1,-1,-1,-1,-1,-1,-1,-1,-1,-1,-1,-1,-1,-1,-1,-1,-1,-1,-1,-1,-1,-1,-1],"split_conditions":[-3.5931768E0,5.7232165E-1,-3.8992205E-1,1.9033737E0,-2.774153E-1,-1.2684768E0,-9.5399237E-1,1.922718E0,-9.2344135E-1,-7.335971E-1,1.922718E0,-2.48681E0,-4.0855892E-2,-1.6847309E0,5.4899635E0,3.6223543E0,2.3718846E0,-7.563034E-1,-5.26436E-1,1.7811701E0,-3.185317E-1,-1.0239435E0,1.4699572E0,1.3030251E0,-7.600041E-2,1.6844545E-1,9.0066093E-1,-4.521951E-1,2.2172236E-1,2.2795545E-1,3.838319E-2,-1.7194667E-1,-6.812099E-1,-3.0967987E-1,9.262987E-1,4.206811E-1,-2.3322235E-1,-3.054215E-1,-1.0914917E0,-1.3215541E0,-3.1191996E-1,-3.3198118E-1,-4.334136E-1,5.512596E0,-1.2275189E-1,3.5141033E-1,5.512596E0,9.7925924E-2,-2.10111E-2,-1.4524725E-1,3.0046955E-1,2.467377E-1,-4.0936923E-1,-2.9233265E-1,1.4459117E-1,-3.2297677E-1,-5.6807633E-2,3.4379685E-1,-3.1605393E-1,3.7571833E-1,-2.9035118E-1,-3.6697084E-1,1.8868566E-1,3.4684104E-1,1.05049066E-1,-3.440855E-1,8.150968E-2,-5.024268E-1,-3.8749805E-1,-8.466126E-3,1.7635934E-1,-3.8742563E-1,2.9231626E-1,-3.1241608E-1,-4.9626738E-2,-2.407523E-1,4.3235324E-2],"split_indices":[13,9,3,0,0,13,23,6,14,3,6,14,11,9,16,3,3,3,5,6,25,23,3,17,17,10,29,0,0,0,0,0,0,0,29,22,2,0,13,3,0,0,2,20,7,10,20,9,27,0,0,0,0,0,0,0,0,0,0,0,0,0,0,0,0,0,0,0,0,0,0,0,0,0,0,0,0],"split_type":[0,0,0,0,0,0,0,0,0,0,0,0,0,0,0,0,0,0,0,0,0,0,0,0,0,0,0,0,0,0,0,0,0,0,0,0,0,0,0,0,0,0,0,0,0,0,0,0,0,0,0,0,0,0,0,0,0,0,0,0,0,0,0,0,0,0,0,0,0,0,0,0,0,0,0,0,0],"sum_hessian":[1.6936254E4,3.0920464E3,1.3844208E4,3.0837432E3,8.303269E0,1.8015952E3,1.2042613E4,3.075792E3,7.951149E0,2.3883257E2,1.5627627E3,4.987933E2,1.1543819E4,3.0710122E3,4.779914E0,3.8521872E0,4.098962E0,1.0687279E2,1.319598E2,1.4559221E3,1.0684061E2,9.642116E0,4.8915118E2,5.924376E3,5.619444E3,2.9523591E3,1.1865307E2,2.1543064E0,2.6256073E0,2.8508146E0,1.0013726E0,1.2244989E0,2.8744628E0,9.947802E1,7.3947697E0,4.407595E1,8.7883835E1,1.4423722E3,1.3549928E1,6.728746E1,3.955315E1,3.3305473E0,6.3115683E0,3.6600955E2,1.2314163E2,5.6048716E3,3.1950443E2,2.0449352E3,3.5745085E3,1.0608534E0,2.951298E3,1.1550678E2,3.146283E0,5.502484E0,1.8922857E0,4.064146E1,3.4344914E0,6.3650208E1,2.4233627E1,1.1557562E0,1.2394172E1,1.6719044E1,5.0568413E1,5.183057E0,1.1285117E0,3.6355786E2,2.4517076E0,3.5773598E1,8.7368034E1,3.6020037E3,2.002868E3,2.8943515E2,3.006928E1,1.3232887E3,7.216464E2,7.502233E2,2.8242852E3],"tree_param":{"num_deleted":"0","num_feature":"30","num_nodes":"77","size_leaf_vector":"1"}},{"base_weights":[-9.080129E-3,9.808661E-1,-1.8320441E-1,9.9177825E-1,-1.1565858E0,-8.854598E-1,-1.0132764E-1,9.944866E-1,-3.8495094E-1,-4.8798972E-1,-3.8964707E-1,-4.5198482E-1,-9.5579726E-1,-4.1922346E-1,5.522257E-2,9.960443E-1,-2.4838583E-1,1.5462143E-2,-2.1249156E-1,-9.7188324E-1,-3.0373706E-2,-1.0094713E0,-2.9805067E-1,-1.9713894E-1,-1.0069665E0,-4.5214686E-1,2.1156958E-1,-2.2921734E-2,9.9674875E-1,-3.1123897E-1,4.8948772E-2,-3.1628975E-1,4.678778E-1,-3.038457E-1,-6.2572014E-1,-3.5334733E-1,8.197517E-2,3.7708086E-1,-4.1788915E-1,-1.1720141E0,-5.888512E-1,-9.9131423E-1,4.0925416E-1,3.4966332E-1,-4.1943094E-1,5.9890825E-2,2.9925916E-1,-2.4772169E-1,2.4184887E-1,-3.2083327E-1,2.6854765E-1,3.9268443E-1,-2.8135353E-1,1.3560456E-1,-3.356328E-1,-2.6974288E-1,2.4951959E-1,-2.0671055E-1,8.637542E-2,-4.4511622E-1,-3.3530468E-1,-3.2374564E-1,2.0808116E-1,-3.267885E-1,3.3824492E-1,-2.8259873E-1,2.5379348E-1,1.4759935E-1,-1.4149542E-1,2.6157895E-1,-2.2157718E-1],"categories":[],"categories_nodes":[],"categories_segments":[],"categories_sizes":[],"default_left":[0,0,0,0,0,0,0,0,0,0,0,0,0,0,0,0,0,0,0,0,0,0,0,0,0,0,0,0,0,0,0,0,0,0,0,0,0,0,0,0,0,0,0,0,0,0,0,0,0,0,0,0,0,0,0,0,0,0,0,0,0,0,0,0,0,0,0,0,0,0,0],"id":12,"left_children":[1,3,5,7,9,11,13,15,-1,17,-1,19,21,23,25,27,-1,-1,-1,29,31,33,35,37,39,41,43,-1,45,-1,47,-1,49,-1,51,-1,53,55,57,59,61,63,65,67,69,-1,-1,-1,-1,-1,-1,-1,-1,-1,-1,-1,-1,-1,-1,-1,-1,-1,-1,-1,-1,-1,-1,-1,-1,-1,-1],"loss_changes":[2.5989229E3,5.375E1,7.371505E2,1.5104248E1,4.994793E-1,4.0384277E1,5.7155475E2,7.1899414E0,0E0,4.754011E-1,0E0,4.1353035E1,4.0330566E1,4.9443964E2,6.1056445E2,1.7692871E0,0E0,0E0,0E0,5.7083893E0,5.4205925E1,7.3254395E-1,2.9601936E1,3.4893826E2,7.1008545E1,8.425024E2,5.1282544E2,0E0,1.1960449E0,0E0,4.6769147E0,0E0,4.7932446E1,0E0,8.362E0,0E0,2.8304585E1,4.443843E2,3.8064474E2,1.094043E1,1.8690935E2,2.3279614E2,4.1311765E2,5.645976E2,4.3623462E2,0E0,0E0,0E0,0E0,0E0,0E0,0E0,0E0,0E0,0E0,0E0,0E0,0E0,0E0,0E0,0E0,0E0,0E0,0E0,0E0,0E0,0E0,0E0,0E0,0E0,0E0],"parents":[2147483647,0,0,1,1,2,2,3,3,4,4,5,5,6,6,7,7,9,9,11,11,12,12,13,13,14,14,15,15,19,19,20,20,21,21,22,22,23,23,24,24,25,25,26,26,28,28,30,30,32,32,34,34,36,36,37,37,38,38,39,39,40,40,41,41,42,42,43,43,44,44],"right_children":[2,4,6,8,10,12,14,16,-1,18,-1,20,22,24,26,28,-1,-1,-1,30,32,34,36,38,40,42,44,-1,46,-1,48,-1,50,-1,52,-1,54,56,58,60,62,64,66,68,70,-1,-1,-1,-1,-1,-1,-1,-1,-1,-1,-1,-1,-1,-1,-1,-1,-1,-1,-1,-1,-1,-1,-1,-1,-1,-1],"split_conditions":[-1.7214434E0,-7.4457484E-1,-4.1861707E-1,1.1574966E0,-3.5635103E-2,-1.2684768E0,-9.438641E-2,2.7314253E0,-3.8495094E-1,-3.736479E-1,-3.8964707E-1,-3.024889E-1,1.922718E0,5.028012E-1,-1.5994516E-1,-4.4626758E-1,-2.4838583E-1,1.5462143E-2,-2.1249156E-1,3.0702438E0,3.661655E-2,1.7811701E0,-3.9683707E-2,1.5040774E0,-4.7130677E-1,1.6303902E0,1.2108648E0,-2.2921734E-2,4.3584447E-2,-3.1123897E-1,-7.677249E-1,-3.1628975E-1,-3.3657804E-1,-3.038457E-1,-1.1705163E0,-3.5334733E-1,1.6614579E-1,6.609008E-1,5.5849433E0,-1.7784071E0,7.132617E-1,4.212608E0,-8.380956E-3,3.3643106E-1,-4.3983808E0,5.9890825E-2,2.9925916E-1,-2.4772169E-1,2.4184887E-1,-3.2083327E-1,2.6854765E-1,3.9268443E-1,-2.8135353E-1,1.3560456E-1,-3.356328E-1,-2.6974288E-1,2.4951959E-1,-2.0671055E-1,8.637542E-2,-4.4511622E-1,-3.3530468E-1,-3.2374564E-1,2.0808116E-1,-3.267885E-1,3.3824492E-1,-2.8259873E-1,2.5379348E-1,1.4759935E-1,-1.4149542E-1,2.6157895E-1,-2.2157718E-1],"split_indices":[16,11,3,15,21,13,16,9,0,12,0,0,6,15,17,3,0,0,0,6,23,6,26,28,16,3,1,0,29,0,0,0,11,0,13,0,23,3,28,0,6,4,4,25,13,0,0,0,0,0,0,0,0,0,0,0,0,0,0,0,0,0,0,0,0,0,0,0,0,0,0],"split_type":[0,0,0,0,0,0,0,0,0,0,0,0,0,0,0,0,0,0,0,0,0,0,0,0,0,0,0,0,0,0,0,0,0,0,0,0,0,0,0,0,0,0,0,0,0,0,0,0,0,0,0,0,0,0,0,0,0,0,0,0,0,0,0,0,0,0,0,0,0,0,0],"sum_hessian":[1.5075217E4,2.2542917E3,1.2820925E4,2.243375E3,1.091693E1,1.3376985E3,1.1483227E4,2.2412695E3,2.1053486E0,2.6923225E0,8.224608E0,1.8779337E2,1.1499052E3,3.7885E3,7.694726E3,2.2398086E3,1.4609926E0,1.00275E0,1.6895726E0,8.351003E1,1.04283325E2,1.0626547E3,8.725051E1,2.7505232E3,1.037977E3,1.8121467E3,5.882579E3,1.3998069E0,2.2384087E3,7.845375E1,5.056286E0,3.376958E1,7.051374E1,1.05184E3,1.0814711E1,2.5686352E1,6.1564163E1,7.6357874E2,1.9869443E3,7.429144E2,2.950626E2,1.1144441E3,6.9770264E2,4.826706E3,1.0558733E3,2.4441571E0,2.2359646E3,2.304162E0,2.7521238E0,1.500915E1,5.5504593E1,1.058717E0,9.755994E0,4.753781E1,1.402635E1,2.0031337E2,5.632654E2,1.4355001E3,5.514443E2,1.06367386E2,6.3654706E2,2.1357018E2,8.149242E1,1.0656504E3,4.8793648E1,1.7013573E2,5.275669E2,4.114126E3,7.1258026E2,2.0890103E2,8.469722E2],"tree_param":{"num_deleted":"0","num_feature":"30","num_nodes":"71","size_leaf_vector":"1"}},{"base_weights":[-1.2059177E-2,9.47193E-1,-1.6009061E-1,9.6856415E-1,7.343785E-2,-7.5577624E-2,-7.3378706E-1,9.786086E-1,3.6823505E-1,-1.3237063E0,7.730528E-1,-4.9140602E-1,2.7330406E-2,-9.757718E-1,-1.2758934E-2,9.803703E-1,-1.6726689E-1,-8.176756E-1,7.3174006E-1,-1.5118033E0,1.2659124E-1,2.9088262E-1,-8.100169E-1,4.927852E-1,-7.3902303E-1,-6.3614035E-1,1.3920677E-1,7.294427E-1,-1.0513635E0,3.4834215E-1,-1.0979483E0,-6.709324E-2,9.8144364E-1,1.8042168E-1,-3.0837727E-1,1.3549386E-1,-3.6891717E-1,8.895849E-1,-2.9899094E-1,-9.861664E-1,-2.5638988E0,1.1174332E-1,-4.0933558E-1,7.823055E-1,-3.7778348E-1,-9.67477E-1,1.0905564E-2,1.1510245E0,-7.793633E-1,2.041111E-1,-1.0891386E0,8.6289686E-1,-6.106335E-1,-1.0571476E0,-6.1717343E-1,-1.2186018E0,5.899428E-1,-1.05634294E-1,-3.315323E-1,2.9498085E-1,1.0253639E-1,-1.02789216E-1,2.9042128E-1,3.1028181E-2,-3.3331555E-1,-9.9383754E-1,-3.107861E-1,2.8831682E-1,-3.4621364E-1,1.0008011E-1,-3.1285134E-1,-2.054534E-1,1.7484184E-1,-2.9627717E-1,4.3614858E-1,-7.104184E-2,-3.040387E-1,-7.085904E-2,1.09941795E-1,-3.3685863E-1,1.7537962E-1,-3.5021135E-1,2.8245074E-1,-3.3614886E-1,-3.0982196E-1,-2.928037E-1,6.506852E-1,4.5662872E-2,-3.9552796E-1,2.4279648E-1,-2.9852045E-1],"categories":[],"categories_nodes":[],"categories_segments":[],"categories_sizes":[],"default_left":[0,0,0,0,0,0,0,0,0,0,0,0,0,0,0,0,0,0,0,0,0,0,0,0,0,0,0,0,0,0,0,0,0,0,0,0,0,0,0,0,0,0,0,0,0,0,0,0,0,0,0,0,0,0,0,0,0,0,0,0,0,0,0,0,0,0,0,0,0,0,0,0,0,0,0,0,0,0,0,0,0,0,0,0,0,0,0,0,0,0,0],"id":13,"left_children":[1,3,5,7,9,11,13,15,17,19,21,23,25,27,29,31,33,35,37,39,-1,-1,41,43,45,47,49,51,53,55,57,-1,59,-1,-1,-1,-1,61,-1,63,65,-1,-1,67,-1,69,71,73,75,77,79,81,-1,83,85,87,89,-1,-1,-1,-1,-1,-1,-1,-1,-1,-1,-1,-1,-1,-1,-1,-1,-1,-1,-1,-1,-1,-1,-1,-1,-1,-1,-1,-1,-1,-1,-1,-1,-1,-1],"loss_changes":[1.8886078E3,3.3131104E1,5.5858435E2,1.010498E1,4.357586E1,4.2980316E2,2.580899E2,3.6085205E0,1.3601482E1,5.528597E0,1.0008024E1,4.8595068E2,5.9777203E2,1.435315E2,1.4644016E2,2.4215088E0,2.9161756E0,4.503658E0,7.329097E0,5.0279236E0,0E0,0E0,3.0116606E0,2.0446568E2,2.728272E2,2.9833585E2,5.4961456E2,1.9321606E1,2.012085E0,1.06880875E2,1.09069824E-1,0E0,1.6522217E0,0E0,0E0,0E0,0E0,2.4755058E0,0E0,1.5758944E0,1.06184E0,0E0,0E0,1.204765E2,0E0,1.2002612E2,1.4874292E2,5.7529198E1,1.3647821E2,4.6806082E2,2.0186218E1,8.458496E0,0E0,4.5947266E-1,1.8463863E1,5.3715897E0,8.552247E1,0E0,0E0,0E0,0E0,0E0,0E0,0E0,0E0,0E0,0E0,0E0,0E0,0E0,0E0,0E0,0E0,0E0,0E0,0E0,0E0,0E0,0E0,0E0,0E0,0E0,0E0,0E0,0E0,0E0,0E0,0E0,0E0,0E0,0E0],"parents":[2147483647,0,0,1,1,2,2,3,3,4,4,5,5,6,6,7,7,8,8,9,9,10,10,11,11,12,12,13,13,14,14,15,15,16,16,17,17,18,18,19,19,22,22,23,23,24,24,25,25,26,26,27,27,28,28,29,29,30,30,32,32,37,37,39,39,40,40,43,43,45,45,46,46,47,47,48,48,49,49,50,50,51,51,53,53,54,54,55,55,56,56],"right_children":[2,4,6,8,10,12,14,16,18,20,22,24,26,28,30,32,34,36,38,40,-1,-1,42,44,46,48,50,52,54,56,58,-1,60,-1,-1,-1,-1,62,-1,64,66,-1,-1,68,-1,70,72,74,76,78,80,82,-1,84,86,88,90,-1,-1,-1,-1,-1,-1,-1,-1,-1,-1,-1,-1,-1,-1,-1,-1,-1,-1,-1,-1,-1,-1,-1,-1,-1,-1,-1,-1,-1,-1,-1,-1,-1,-1],"split_conditions":[-3.5931768E0,1.1483712E0,2.7100998E-1,-3.867727E-1,1.7134725E-1,-5.147142E-1,2.6341321E0,6.266801E0,4.1458874E0,6.57358E-1,-1.9226979E0,-5.6309116E-1,-2.6382837E-1,-1.7214434E0,8.491225E-1,-4.4626758E-1,-2.5591305E-2,-1.1311129E0,1.7947768E-1,2.4669883E0,1.2659124E-1,2.9088262E-1,-7.651204E-1,2.887595E-1,9.6761745E-1,-7.59064E-1,1.1585532E0,-2.4750457E0,1.144091E0,-3.7785888E-1,8.7256026E-1,-6.709324E-2,1.9913448E-1,1.8042168E-1,-3.0837727E-1,1.3549386E-1,-3.6891717E-1,-2.4055813E-1,-2.9899094E-1,-2.2468994E0,-1.6022114E-1,1.1174332E-1,-4.0933558E-1,4.1224682E-1,-3.7778348E-1,-3.1567645E0,-1.8168293E-2,8.247336E-1,-1.5749587E-1,-6.7330456E-1,2.356403E0,2.1574022E-1,-6.106335E-1,-6.721713E-1,5.0165147E-1,-1.9025129E0,6.5268266E-1,-1.05634294E-1,-3.315323E-1,2.9498085E-1,1.0253639E-1,-1.02789216E-1,2.9042128E-1,3.1028181E-2,-3.3331555E-1,-9.9383754E-1,-3.107861E-1,2.8831682E-1,-3.4621364E-1,1.0008011E-1,-3.1285134E-1,-2.054534E-1,1.7484184E-1,-2.9627717E-1,4.3614858E-1,-7.104184E-2,-3.040387E-1,-7.085904E-2,1.09941795E-1,-3.3685863E-1,1.7537962E-1,-3.5021135E-1,2.8245074E-1,-3.3614886E-1,-3.0982196E-1,-2.928037E-1,6.506852E-1,4.5662872E-2,-3.9552796E-1,2.4279648E-1,-2.9852045E-1],"split_indices":[13,6,7,9,25,21,3,16,3,20,18,19,22,16,2,3,12,11,7,15,0,0,15,11,16,25,8,11,25,21,2,0,11,0,0,0,0,20,0,9,12,0,0,18,0,2,24,19,19,5,20,20,0,13,24,16,21,0,0,0,0,0,0,0,0,0,0,0,0,0,0,0,0,0,0,0,0,0,0,0,0,0,0,0,0,0,0,0,0,0,0],"split_type":[0,0,0,0,0,0,0,0,0,0,0,0,0,0,0,0,0,0,0,0,0,0,0,0,0,0,0,0,0,0,0,0,0,0,0,0,0,0,0,0,0,0,0,0,0,0,0,0,0,0,0,0,0,0,0,0,0,0,0,0,0,0,0,0,0,0,0,0,0,0,0,0,0,0,0,0,0,0,0,0,0,0,0,0,0,0,0,0,0,0,0],"sum_hessian":[1.3298037E4,1.777077E3,1.152096E4,1.7345433E3,4.2533684E1,1.0042675E4,1.4782854E3,1.7053795E3,2.9163824E1,1.3894353E1,2.8639332E1,1.9915382E3,8.051136E3,1.1065591E3,3.7172632E2,1.7029059E3,2.4735537E0,6.548937E0,2.2614887E1,1.26638E1,1.230553E0,2.582089E1,2.8184407E0,4.0013828E2,1.5913999E3,1.1610382E3,6.890098E3,4.6604076E1,1.059955E3,2.794254E2,9.230091E1,1.3321025E0,1.7015739E3,1.4657154E0,1.0078381E0,1.5813769E0,4.96756E0,2.1167097E1,1.4477898E0,9.736626E0,2.9271746E0,1.0044158E0,1.814025E0,3.4386902E2,5.6269253E1,1.219583E3,3.718169E2,8.561985E1,1.0754183E3,6.5450967E3,3.4500134E2,4.5114426E1,1.4896504E0,1.0446042E3,1.5350708E1,3.6787792E1,2.4263762E2,1.3547125E0,9.09462E1,1.6961951E3,5.3787875E0,1.0659755E0,2.0101122E1,1.0188898E0,8.717735E0,1.1804595E0,1.746715E0,3.152692E2,2.8599802E1,6.658517E1,1.1529978E3,1.6765607E2,2.0416083E2,1.0338767E1,7.528108E1,3.2475806E2,7.5066034E2,1.7631526E3,4.7819443E3,3.3850998E2,6.4913754E0,1.1653042E0,4.3949123E1,2.7804718E2,7.6655707E2,1.4174758E1,1.17595E0,2.461481E0,3.432631E1,2.1356747E2,2.9070139E1],"tree_param":{"num_deleted":"0","num_feature":"30","num_nodes":"91","size_leaf_vector":"1"}},{"base_weights":[-1.3763898E-2,9.6383756E-1,-1.3084526E-1,9.707612E-1,-3.3846313E-1,-8.5652E-1,-6.7093894E-2,9.721375E-1,-1.05940446E-1,-2.0224036E-1,-9.1948783E-1,-1.1029512E0,-2.4220703E-2,9.8360276E-1,7.913958E-1,-3.2430637E-1,5.560655E-1,-4.403288E-1,-9.8848253E-1,-1.9938685E-1,-1.3111318E0,-8.81326E-1,2.3448616E-2,-3.291438E-3,9.8482E-1,-2.390623E0,9.487917E-1,-2.900456E-1,1.2190093E0,-3.053138E-1,1.3887437E-1,-3.0264702E-1,-5.3978753E-1,5.0819016E-1,-1.1561033E0,-1.470591E0,-1.0615598E0,9.817841E-1,-1.0271703E0,1.387059E-1,-3.5201102E-1,1.0512982E-1,2.9583856E-1,-1.7933823E0,2.0534267E-1,2.979735E-1,7.137237E-2,4.155588E-1,-2.285962E-1,2.8800383E-1,-2.7330366E-1,-1.4727523E-2,-3.3589795E-1,-4.4985822E-1,3.0682486E-1,1.4354968E-1,-4.2651376E-1,6.653693E-2,-4.461827E-1,2.0850779E-1,-3.5188773E-1,3.7870312E-1,-3.2820445E-1,5.6337576E-2,-3.3115533E-1,6.452178E-2,-1.3721152E-1,4.4973087E-2,-1.7936027E-1],"categories":[],"categories_nodes":[],"categories_segments":[],"categories_sizes":[],"default_left":[0,0,0,0,0,0,0,0,0,0,0,0,0,0,0,0,0,0,0,0,0,0,0,0,0,0,0,0,0,0,0,0,0,0,0,0,0,0,0,0,0,0,0,0,0,0,0,0,0,0,0,0,0,0,0,0,0,0,0,0,0,0,0,0,0,0,0,0,0],"id":14,"left_children":[1,3,5,7,-1,9,11,13,-1,15,17,19,21,23,25,-1,27,29,31,33,35,37,39,-1,41,43,45,-1,47,-1,49,-1,51,53,55,57,59,61,63,65,67,-1,-1,-1,-1,-1,-1,-1,-1,-1,-1,-1,-1,-1,-1,-1,-1,-1,-1,-1,-1,-1,-1,-1,-1,-1,-1,-1,-1],"loss_changes":[1.3763258E3,1.9723633E1,4.9673215E2,2.6799316E0,0E0,3.5537903E1,4.3840805E2,1.876831E0,0E0,5.218379E1,2.570514E1,7.3540344E1,3.8739087E2,1.4645996E0,4.311089E1,0E0,4.3795166E1,3.4027588E1,5.7564087E0,5.1120556E1,1.1121887E1,1.3674661E2,3.8875873E2,0E0,6.4990234E-1,4.9626396E1,2.2418976E0,0E0,1.0883129E1,0E0,4.5241856E1,0E0,9.076209E0,4.6582523E1,1.459185E1,5.7473145E0,2.5830841E1,2.2799267E1,4.341394E1,3.129787E2,2.604692E2,0E0,0E0,0E0,0E0,0E0,0E0,0E0,0E0,0E0,0E0,0E0,0E0,0E0,0E0,0E0,0E0,0E0,0E0,0E0,0E0,0E0,0E0,0E0,0E0,0E0,0E0,0E0,0E0],"parents":[2147483647,0,0,1,1,2,2,3,3,5,5,6,6,7,7,9,9,10,10,11,11,12,12,13,13,14,14,16,16,17,17,18,18,19,19,20,20,21,21,22,22,24,24,25,25,26,26,28,28,30,30,32,32,33,33,34,34,35,35,36,36,37,37,38,38,39,39,40,40],"right_children":[2,4,6,8,-1,10,12,14,-1,16,18,20,22,24,26,-1,28,30,32,34,36,38,40,-1,42,44,46,-1,48,-1,50,-1,52,54,56,58,60,62,64,66,68,-1,-1,-1,-1,-1,-1,-1,-1,-1,-1,-1,-1,-1,-1,-1,-1,-1,-1,-1,-1,-1,-1,-1,-1,-1,-1,-1,-1],"split_conditions":[-1.9025129E0,-7.690888E-1,-4.4626758E-1,3.1910455E-1,-3.3846313E-1,-1.59527E0,-3.3735925E-1,1.6733527E0,-1.05940446E-1,-8.4598976E-1,-1.3959484E0,-9.2775655E-1,-7.40996E-1,-4.4626758E-1,-3.7785888E-1,-3.2430637E-1,1.3694742E0,1.6608667E0,2.1752741E0,-6.30683E-2,7.1005315E-2,-5.743556E0,3.0920756E-1,-3.291438E-3,4.3584447E-2,3.0998856E-1,4.4998097E0,-2.900456E-1,1.1179934E-1,-3.053138E-1,3.2523105E0,-3.0264702E-1,-2.8341877E-1,-9.186649E-1,-1.0016416E0,-5.4185386E0,-1.8015726E0,-1.0222497E0,-1.4071839E0,1.267465E0,-3.833939E-1,1.0512982E-1,2.9583856E-1,-1.7933823E0,2.0534267E-1,2.979735E-1,7.137237E-2,4.155588E-1,-2.285962E-1,2.8800383E-1,-2.7330366E-1,-1.4727523E-2,-3.3589795E-1,-4.4985822E-1,3.0682486E-1,1.4354968E-1,-4.2651376E-1,6.653693E-2,-4.461827E-1,2.0850779E-1,-3.5188773E-1,3.7870312E-1,-3.2820445E-1,5.6337576E-2,-3.3115533E-1,6.452178E-2,-1.3721152E-1,4.4973087E-2,-1.7936027E-1],"split_indices":[16,11,3,2,0,9,27,26,0,0,13,16,17,3,21,0,6,0,6,4,11,6,13,0,29,23,28,0,27,0,28,0,12,4,15,13,12,11,26,2,1,0,0,0,0,0,0,0,0,0,0,0,0,0,0,0,0,0,0,0,0,0,0,0,0,0,0,0,0],"split_type":[0,0,0,0,0,0,0,0,0,0,0,0,0,0,0,0,0,0,0,0,0,0,0,0,0,0,0,0,0,0,0,0,0,0,0,0,0,0,0,0,0,0,0,0,0,0,0,0,0,0,0,0,0,0,0,0,0,0,0,0,0,0,0,0,0,0,0,0,0],"sum_hessian":[1.2022526E4,1.285091E3,1.0737436E4,1.2813862E3,3.7047777E0,8.6611456E2,9.871321E3,1.2803209E3,1.0653006E0,7.640675E1,7.8970776E2,3.913442E2,9.479977E3,1.199772E3,8.054891E1,3.519482E1,4.1211933E1,1.0032766E2,6.893801E2,7.3648056E1,3.1769614E2,4.9854446E2,8.981433E3,1.4568225E0,1.1983152E3,3.1277466E0,7.7421165E1,1.2360224E1,2.885171E1,4.9863598E1,5.046406E1,6.5828925E2,3.109091E1,4.2605965E1,3.1042088E1,1.9085846E2,1.2683768E2,3.577677E1,4.627677E2,6.872398E3,2.1090342E3,3.0199428E0,1.1952953E3,1.0079358E0,2.1198108E0,7.249094E1,4.9302363E0,2.689614E1,1.9555688E0,2.8364887E1,2.2099174E1,1.742787E1,1.366304E1,8.301362E0,3.4304604E1,4.2269897E0,2.6815098E1,1.7432263E0,1.8911523E2,7.2516694E0,1.1958601E2,3.1862234E1,3.9145398E0,2.738706E1,4.353806E2,6.092495E3,7.799031E2,6.9354266E2,1.4154916E3],"tree_param":{"num_deleted":"0","num_feature":"30","num_nodes":"69","size_leaf_vector":"1"}},{"base_weights":[-1.303423E-2,9.258365E-1,-1.0860678E-1,9.510622E-1,7.6111175E-2,-6.0321134E-2,-9.311674E-1,9.631625E-1,4.0408316E-1,6.825655E-1,-1.5092635E0,-8.191273E-1,-7.335649E-3,8.415306E-1,-1.0948263E0,9.697578E-1,4.929037E-1,7.9125625E-1,-7.651297E-1,-2.3261711E-1,9.2358756E-1,-3.3330306E-1,-1.8872758E0,-3.7056464E-1,-9.2877215E-1,4.707045E-2,-6.873623E-1,1.0864067E0,-3.328916E-1,-1.2399576E0,-6.596297E-2,9.8368174E-1,7.6642996E-1,-2.680631E-1,7.9736453E-1,-1.9193374E-1,9.18069E-1,2.8657117E-1,4.9048457E-2,1.3259742E-1,-2.5747478E-1,-1.1034087E-1,-6.49201E-1,-9.4581866E-1,4.536434E-2,-3.0132598E-1,-2.76562E-1,1.1979029E-1,-5.472647E-1,9.0986556E-1,-1.0421438E0,1.1375012E0,-1.566791E-1,2.6047808E-1,-1.2552161E0,-2.2048202E0,3.05894E-1,-1.9601747E-2,2.9548776E-1,-6.8743175E-1,2.9285255E-1,-9.264003E-2,2.7673313E-1,2.8718507E-1,3.5037354E-2,-3.007893E-1,-1.2365003E-1,-2.868332E-1,1.5959284E-1,-2.7761266E-1,7.0448935E-2,1.4665294E-1,-6.7404774E-3,5.0733507E-2,-3.025179E-1,-2.4911864E-1,2.962351E-1,-1.7144736E-2,-3.75621E-1,3.4589458E-1,7.75931E-2,-2.4844979E-1,2.73137E-1,-3.364933E-1,-4.367583E-1,-9.177422E-1,-3.1166643E-1,2.2090642E-1,-4.3772122E-1],"categories":[],"categories_nodes":[],"categories_segments":[],"categories_sizes":[],"default_left":[0,0,0,0,0,0,0,0,0,0,0,0,0,0,0,0,0,0,0,0,0,0,0,0,0,0,0,0,0,0,0,0,0,0,0,0,0,0,0,0,0,0,0,0,0,0,0,0,0,0,0,0,0,0,0,0,0,0,0,0,0,0,0,0,0,0,0,0,0,0,0,0,0,0,0,0,0,0,0,0,0,0,0,0,0,0,0,0,0],"id":15,"left_children":[1,3,5,7,9,11,13,15,17,19,21,23,25,27,29,31,33,35,-1,-1,37,39,41,43,45,47,49,51,-1,53,55,57,59,-1,61,-1,63,-1,-1,-1,-1,-1,-1,65,67,-1,69,71,73,75,77,79,-1,81,83,85,87,-1,-1,-1,-1,-1,-1,-1,-1,-1,-1,-1,-1,-1,-1,-1,-1,-1,-1,-1,-1,-1,-1,-1,-1,-1,-1,-1,-1,-1,-1,-1,-1],"loss_changes":[9.9889874E2,2.1973755E1,4.0123755E2,6.2212524E0,3.0585388E1,3.837359E2,1.6342892E2,2.550476E0,2.8716251E1,8.7713375E0,3.290289E0,3.0294403E1,3.3014368E2,2.4095776E1,7.6554565E1,1.9692383E0,7.2716007E0,4.4706287E0,0E0,0E0,3.2802582E-1,1.7465031E0,1.9193649E0,2.9718168E1,2.4387878E1,3.5716922E2,3.755349E2,4.134289E0,0E0,1.0623291E1,5.1977013E1,1.2660522E0,4.468102E1,0E0,2.1207485E0,0E0,5.187473E-1,0E0,0E0,0E0,0E0,0E0,0E0,1.16605E0,3.605241E1,0E0,1.7914967E1,3.865515E2,2.9778284E2,1.711367E1,1.1186804E2,2.7402496E-1,0E0,4.543612E0,1.0303345E1,6.4592476E0,4.3489563E1,0E0,0E0,0E0,0E0,0E0,0E0,0E0,0E0,0E0,0E0,0E0,0E0,0E0,0E0,0E0,0E0,0E0,0E0,0E0,0E0,0E0,0E0,0E0,0E0,0E0,0E0,0E0,0E0,0E0,0E0,0E0,0E0],"parents":[2147483647,0,0,1,1,2,2,3,3,4,4,5,5,6,6,7,7,8,8,9,9,10,10,11,11,12,12,13,13,14,14,15,15,16,16,17,17,20,20,21,21,22,22,23,23,24,24,25,25,26,26,27,27,29,29,30,30,31,31,32,32,34,34,36,36,43,43,44,44,46,46,47,47,48,48,49,49,50,50,51,51,53,53,54,54,55,55,56,56],"right_children":[2,4,6,8,10,12,14,16,18,20,22,24,26,28,30,32,34,36,-1,-1,38,40,42,44,46,48,50,52,-1,54,56,58,60,-1,62,-1,64,-1,-1,-1,-1,-1,-1,66,68,-1,70,72,74,76,78,80,-1,82,84,86,88,-1,-1,-1,-1,-1,-1,-1,-1,-1,-1,-1,-1,-1,-1,-1,-1,-1,-1,-1,-1,-1,-1,-1,-1,-1,-1,-1,-1,-1,-1,-1,-1],"split_conditions":[-3.876269E0,1.1483712E0,1.3030251E0,2.2559426E0,6.4265126E-1,-4.4626758E-1,-5.9177885E0,-3.867727E-1,-3.4788683E-1,2.1005142E0,-5.7924104E-1,-1.133169E0,1.3970327E0,-1.2684768E0,1.6027968E0,1.6733527E0,-2.4055813E-1,-8.4466204E-2,-7.651297E-1,-2.3261711E-1,-8.628178E-1,1.5875841E0,7.827308E-2,-7.335971E-1,1.922718E0,1.7752723E0,-1.9025129E0,1.612691E-1,-3.328916E-1,-4.063549E0,-5.24226E-1,-2.5407207E-1,-2.7204153E-1,-2.680631E-1,1.069001E0,-1.9193374E-1,1.0919234E0,2.8657117E-1,4.9048457E-2,1.3259742E-1,-2.5747478E-1,-1.1034087E-1,-6.49201E-1,-7.563034E-1,-4.572028E-1,-3.0132598E-1,2.121636E-1,-2.0524442E-1,-1.2684768E0,-9.7110933E-1,-5.897313E-1,-1.7376988E0,-1.566791E-1,1.801406E0,7.9641575E-1,-5.795523E-1,-1.2065453E-1,-1.9601747E-2,2.9548776E-1,-6.8743175E-1,2.9285255E-1,-9.264003E-2,2.7673313E-1,2.8718507E-1,3.5037354E-2,-3.007893E-1,-1.2365003E-1,-2.868332E-1,1.5959284E-1,-2.7761266E-1,7.0448935E-2,1.4665294E-1,-6.7404774E-3,5.0733507E-2,-3.025179E-1,-2.4911864E-1,2.962351E-1,-1.7144736E-2,-3.75621E-1,3.4589458E-1,7.75931E-2,-2.4844979E-1,2.73137E-1,-3.364933E-1,-4.367583E-1,-9.177422E-1,-3.1166643E-1,2.2090642E-1,-4.3772122E-1],"split_indices":[13,6,17,17,29,3,7,9,5,3,7,13,1,13,15,26,20,27,0,0,8,6,27,3,6,0,16,27,0,22,23,10,25,0,1,0,28,0,0,0,0,0,0,3,5,0,18,19,13,5,19,6,0,10,3,14,23,0,0,0,0,0,0,0,0,0,0,0,0,0,0,0,0,0,0,0,0,0,0,0,0,0,0,0,0,0,0,0,0],"split_type":[0,0,0,0,0,0,0,0,0,0,0,0,0,0,0,0,0,0,0,0,0,0,0,0,0,0,0,0,0,0,0,0,0,0,0,0,0,0,0,0,0,0,0,0,0,0,0,0,0,0,0,0,0,0,0,0,0,0,0,0,0,0,0,0,0,0,0,0,0,0,0,0,0,0,0,0,0,0,0,0,0,0,0,0,0,0,0,0,0],"sum_hessian":[1.1130119E4,1.0275127E3,1.0102606E4,9.9777264E2,2.9740019E1,9.543463E3,5.591434E2,9.7543317E2,2.233945E1,2.1923187E1,7.8168297E0,6.219562E2,8.921507E3,4.6908142E1,5.122352E2,9.608946E2,1.4538563E1,2.0398523E1,1.9409276E0,2.7955651E0,1.9127623E1,2.3592265E0,5.4576035E0,1.2302685E2,4.9892935E2,8.261472E3,6.600351E2,4.20713E1,4.83684E0,4.4873203E2,6.350323E1,8.957176E2,6.517702E1,2.269396E0,1.2269167E1,1.3312125E0,1.906731E1,1.8116528E1,1.0110956E0,1.0162902E0,1.3429364E0,1.1996427E0,4.257961E0,5.109101E1,7.193584E1,4.4659067E2,5.233868E1,7.3615483E3,8.999234E2,1.196783E2,5.403568E2,4.1060047E1,1.011253E0,4.355608E0,4.4437643E2,8.6752825E0,5.482795E1,1.0284516E0,8.9468915E2,3.5465853E0,6.1630432E1,1.0971801E0,1.1171987E1,1.7992083E1,1.0752273E0,4.5380966E1,5.7100434E0,2.3207872E1,4.8727966E1,2.2712868E1,2.9625814E1,2.0474739E3,5.314074E3,3.5267133E2,5.472521E2,4.6936874E0,1.1498461E2,9.5154465E1,4.4520233E2,4.0042805E1,1.0172445E0,1.5258427E0,2.8297653E0,2.7073505E2,1.7364139E2,4.0695815E0,4.605701E0,4.4546265E1,1.0281683E1],"tree_param":{"num_deleted":"0","num_feature":"30","num_nodes":"89","size_leaf_vector":"1"}},{"base_weights":[-1.3063544E-2,9.074302E-1,-8.761634E-2,9.3460244E-1,5.3145733E-2,-1.110791E0,-5.31101E-2,9.483373E-1,3.5059565E-1,6.511285E-1,-1.2753991E0,1.8695442E-1,-1.1385493E0,5.1639847E-2,-3.96939E-1,9.659724E-1,7.089841E-1,8.877135E-1,-1.5978608E0,-2.1690689E-1,8.958229E-1,-4.9982014E-1,-3.378617E-1,2.6326507E-1,-2.8310722E-1,-1.1557587E0,3.3906466E-1,-3.419004E-1,1.69294E-1,-2.9673519E-2,-8.386958E-1,9.7400206E-1,4.5729882E-1,8.707814E-1,-9.6082634E-1,2.358408E-2,2.8149122E-1,3.84816E-2,-6.519449E-1,4.330366E-2,2.813232E-1,1.254513E-1,-2.5897068E-1,-3.1834128E-1,-3.7238207E-1,2.2330026E-1,-1.4885132E-1,6.699163E-2,-8.3420503E-1,3.445224E-1,-2.531409E-1,2.130868E-1,-9.4846433E-1,-2.7659655E-1,-1.0562094E0,-1.6478166E-2,2.927065E-1,-2.4138233E-1,2.2467074E-1,6.768215E-3,2.9442972E-1,7.032577E-2,-3.3784437E-1,2.3978366E-1,-2.7751535E-1,-1.7677335E-1,1.3379313E-1,1.3592063E-1,-2.356103E-1,-7.202225E-2,2.1472529E-1,-3.010308E-1,2.926431E-1,1.6098142E-1,-3.0638468E-1,-3.6644712E-1,-2.5397584E-1],"categories":[],"categories_nodes":[],"categories_segments":[],"categories_sizes":[],"default_left":[0,0,0,0,0,0,0,0,0,0,0,0,0,0,0,0,0,0,0,0,0,0,0,0,0,0,0,0,0,0,0,0,0,0,0,0,0,0,0,0,0,0,0,0,0,0,0,0,0,0,0,0,0,0,0,0,0,0,0,0,0,0,0,0,0,0,0,0,0,0,0,0,0,0,0,0,0],"id":16,"left_children":[1,3,5,7,9,11,13,15,17,19,21,23,25,27,29,31,33,35,37,-1,39,-1,41,-1,-1,43,45,47,49,51,53,55,57,59,-1,-1,-1,-1,-1,-1,-1,-1,-1,-1,-1,-1,-1,61,63,65,67,69,71,73,75,-1,-1,-1,-1,-1,-1,-1,-1,-1,-1,-1,-1,-1,-1,-1,-1,-1,-1,-1,-1,-1,-1],"loss_changes":[7.1149567E2,1.7982117E1,3.385552E2,5.7057495E0,2.0696682E1,1.14826355E1,3.3421417E2,2.4171753E0,2.1181616E1,6.6687303E0,2.4037838E0,6.614398E0,8.184143E0,3.2940668E2,3.515383E2,2.3390503E0,3.7086193E1,5.584936E-1,4.685689E0,0E0,3.5754967E-1,0E0,1.8055122E0,0E0,0E0,1.1356506E0,1.8252084E0,3.2967413E2,4.054837E2,2.6434415E2,1.1997394E2,1.2164307E0,5.1945577E0,4.935711E0,0E0,0E0,0E0,0E0,0E0,0E0,0E0,0E0,0E0,0E0,0E0,0E0,0E0,1.7913931E2,1.1100043E2,3.6701868E2,6.0409564E2,2.1373691E2,2.717482E1,1.6756497E2,2.3525574E1,0E0,0E0,0E0,0E0,0E0,0E0,0E0,0E0,0E0,0E0,0E0,0E0,0E0,0E0,0E0,0E0,0E0,0E0,0E0,0E0,0E0,0E0],"parents":[2147483647,0,0,1,1,2,2,3,3,4,4,5,5,6,6,7,7,8,8,9,9,10,10,11,11,12,12,13,13,14,14,15,15,16,16,17,17,18,18,20,20,22,22,25,25,26,26,27,27,28,28,29,29,30,30,31,31,32,32,33,33,47,47,48,48,49,49,50,50,51,51,52,52,53,53,54,54],"right_children":[2,4,6,8,10,12,14,16,18,20,22,24,26,28,30,32,34,36,38,-1,40,-1,42,-1,-1,44,46,48,50,52,54,56,58,60,-1,-1,-1,-1,-1,-1,-1,-1,-1,-1,-1,-1,-1,62,64,66,68,70,72,74,76,-1,-1,-1,-1,-1,-1,-1,-1,-1,-1,-1,-1,-1,-1,-1,-1,-1,-1,-1,-1,-1,-1],"split_conditions":[-3.876269E0,1.1483712E0,-9.5399237E-1,2.2559426E0,6.4265126E-1,-2.48681E0,3.8108462E-1,1.6733527E0,-1.0737718E0,2.1005142E0,-1.6446553E-1,-3.4482497E-1,5.512596E0,-3.6872873E-1,-8.15154E-2,-3.867727E-1,4.3738227E0,-6.2251594E-2,-2.1248705E0,-2.1690689E-1,-3.932443E-1,-4.9982014E-1,-1.9787519E0,2.6326507E-1,-2.8310722E-1,6.862224E-1,-1.2968782E0,-4.2580485E-1,4.1730523E-2,3.6631247E-1,4.4468406E-1,-2.5407207E-1,-2.4055813E-1,-4.517734E-1,-9.6082634E-1,2.358408E-2,2.8149122E-1,3.84816E-2,-6.519449E-1,4.330366E-2,2.813232E-1,1.254513E-1,-2.5897068E-1,-3.1834128E-1,-3.7238207E-1,2.2330026E-1,-1.4885132E-1,4.2316443E-1,-2.7387187E0,-2.7902055E-1,-3.1789058E-1,3.3815885E-1,1.3260707E0,1.0460295E-2,7.6587774E-2,-1.6478166E-2,2.927065E-1,-2.4138233E-1,2.2467074E-1,6.768215E-3,2.9442972E-1,7.032577E-2,-3.3784437E-1,2.3978366E-1,-2.7751535E-1,-1.7677335E-1,1.3379313E-1,1.3592063E-1,-2.356103E-1,-7.202225E-2,2.1472529E-1,-3.010308E-1,2.926431E-1,1.6098142E-1,-3.0638468E-1,-3.6644712E-1,-2.5397584E-1],"split_indices":[13,6,23,17,29,14,23,26,5,3,20,19,20,21,15,9,7,27,8,0,20,0,8,0,0,3,14,13,26,12,23,10,20,14,0,0,0,0,0,0,0,0,0,0,0,0,0,18,5,26,7,17,25,27,22,0,0,0,0,0,0,0,0,0,0,0,0,0,0,0,0,0,0,0,0,0,0],"split_type":[0,0,0,0,0,0,0,0,0,0,0,0,0,0,0,0,0,0,0,0,0,0,0,0,0,0,0,0,0,0,0,0,0,0,0,0,0,0,0,0,0,0,0,0,0,0,0,0,0,0,0,0,0,0,0,0,0,0,0,0,0,0,0,0,0,0,0,0,0,0,0,0,0,0,0,0,0],"sum_hessian":[1.0365663E4,7.7579926E2,9.589864E3,7.5179285E2,2.400637E1,3.118463E2,9.278018E3,7.3390875E2,1.7884106E1,1.690656E1,7.0998096E0,6.4105062E0,3.054358E2,7.1121113E3,2.165906E3,6.807188E2,5.3189953E1,1.4446217E1,3.437889E0,2.2600126E0,1.4646547E1,4.46302E0,2.6367898E0,